digraph Tree {
node [shape=box, style="filled, rounded", color="black", fontname=helvetica] ;
edge [fontname=helvetica] ;
0 [label="2 <= 0.014\ngini = 0.303\nsamples = 11666\nvalue = [[11354, 312]\n[9254, 2412]\n[8522, 3144]\n[9122, 2544]\n[8412, 3254]]", fillcolor="#e581390d"] ;
1 [label="14 <= 0.017\ngini = 0.301\nsamples = 6168\nvalue = [[6000, 168]\n[4633, 1535]\n[4217, 1951]\n[4771, 1397]\n[5051, 1117]]", fillcolor="#e581390f"] ;
0 -> 1 [labeldistance=2.5, labelangle=45, headlabel="True"] ;
2 [label="8 <= 0.75\ngini = 0.246\nsamples = 118\nvalue = [[108, 10]\n[107, 11]\n[105, 13]\n[103, 15]\n[49, 69]]", fillcolor="#e581393b"] ;
1 -> 2 ;
3 [label="10 <= 0.667\ngini = 0.222\nsamples = 80\nvalue = [[76, 4]\n[75, 5]\n[72, 8]\n[68, 12]\n[29, 51]]", fillcolor="#e581394e"] ;
2 -> 3 ;
4 [label="3 <= 0.5\ngini = 0.178\nsamples = 3\nvalue = [[3, 0]\n[3, 0]\n[3, 0]\n[1, 2]\n[2, 1]]", fillcolor="#e5813971"] ;
3 -> 4 ;
5 [label="gini = 0.0\nsamples = 1\nvalue = [[1, 0]\n[1, 0]\n[1, 0]\n[1, 0]\n[0, 1]]", fillcolor="#e58139ff"] ;
4 -> 5 ;
6 [label="gini = 0.0\nsamples = 2\nvalue = [[2, 0]\n[2, 0]\n[2, 0]\n[0, 2]\n[2, 0]]", fillcolor="#e58139ff"] ;
4 -> 6 ;
7 [label="9 <= 0.25\ngini = 0.218\nsamples = 77\nvalue = [[73, 4]\n[72, 5]\n[69, 8]\n[67, 10]\n[27, 50]]", fillcolor="#e5813952"] ;
3 -> 7 ;
8 [label="4 <= 0.25\ngini = 0.234\nsamples = 64\nvalue = [[60, 4]\n[60, 4]\n[57, 7]\n[54, 10]\n[25, 39]]", fillcolor="#e5813945"] ;
7 -> 8 ;
9 [label="6 <= 0.25\ngini = 0.304\nsamples = 10\nvalue = [[9, 1]\n[9, 1]\n[7, 3]\n[8, 2]\n[7, 3]]", fillcolor="#e581390d"] ;
8 -> 9 ;
10 [label="1 <= 0.5\ngini = 0.278\nsamples = 7\nvalue = [[7, 0]\n[6, 1]\n[4, 3]\n[5, 2]\n[6, 1]]", fillcolor="#e5813922"] ;
9 -> 10 ;
11 [label="gini = 0.0\nsamples = 1\nvalue = [[1, 0]\n[1, 0]\n[1, 0]\n[1, 0]\n[0, 1]]", fillcolor="#e58139ff"] ;
10 -> 11 ;
12 [label="2 <= 0.01\ngini = 0.244\nsamples = 6\nvalue = [[6, 0]\n[5, 1]\n[3, 3]\n[4, 2]\n[6, 0]]", fillcolor="#e581393c"] ;
10 -> 12 ;
13 [label="11 <= 0.026\ngini = 0.192\nsamples = 5\nvalue = [[5, 0]\n[5, 0]\n[2, 3]\n[3, 2]\n[5, 0]]", fillcolor="#e5813966"] ;
12 -> 13 ;
14 [label="2 <= 0.006\ngini = 0.2\nsamples = 4\nvalue = [[4, 0]\n[4, 0]\n[2, 2]\n[2, 2]\n[4, 0]]", fillcolor="#e5813960"] ;
13 -> 14 ;
15 [label="15 <= 0.958\ngini = 0.178\nsamples = 3\nvalue = [[3, 0]\n[3, 0]\n[1, 2]\n[2, 1]\n[3, 0]]", fillcolor="#e5813971"] ;
14 -> 15 ;
16 [label="5 <= 0.167\ngini = 0.2\nsamples = 2\nvalue = [[2, 0]\n[2, 0]\n[1, 1]\n[1, 1]\n[2, 0]]", fillcolor="#e5813960"] ;
15 -> 16 ;
17 [label="gini = 0.0\nsamples = 1\nvalue = [[1, 0]\n[1, 0]\n[1, 0]\n[0, 1]\n[1, 0]]", fillcolor="#e58139ff"] ;
16 -> 17 ;
18 [label="gini = 0.0\nsamples = 1\nvalue = [[1, 0]\n[1, 0]\n[0, 1]\n[1, 0]\n[1, 0]]", fillcolor="#e58139ff"] ;
16 -> 18 ;
19 [label="gini = 0.0\nsamples = 1\nvalue = [[1, 0]\n[1, 0]\n[0, 1]\n[1, 0]\n[1, 0]]", fillcolor="#e58139ff"] ;
15 -> 19 ;
20 [label="gini = 0.0\nsamples = 1\nvalue = [[1, 0]\n[1, 0]\n[1, 0]\n[0, 1]\n[1, 0]]", fillcolor="#e58139ff"] ;
14 -> 20 ;
21 [label="gini = 0.0\nsamples = 1\nvalue = [[1, 0]\n[1, 0]\n[0, 1]\n[1, 0]\n[1, 0]]", fillcolor="#e58139ff"] ;
13 -> 21 ;
22 [label="gini = 0.0\nsamples = 1\nvalue = [[1, 0]\n[0, 1]\n[1, 0]\n[1, 0]\n[1, 0]]", fillcolor="#e58139ff"] ;
12 -> 22 ;
23 [label="2 <= 0.01\ngini = 0.178\nsamples = 3\nvalue = [[2, 1]\n[3, 0]\n[3, 0]\n[3, 0]\n[1, 2]]", fillcolor="#e5813971"] ;
9 -> 23 ;
24 [label="gini = 0.0\nsamples = 2\nvalue = [[2, 0]\n[2, 0]\n[2, 0]\n[2, 0]\n[0, 2]]", fillcolor="#e58139ff"] ;
23 -> 24 ;
25 [label="gini = 0.0\nsamples = 1\nvalue = [[0, 1]\n[1, 0]\n[1, 0]\n[1, 0]\n[1, 0]]", fillcolor="#e58139ff"] ;
23 -> 25 ;
26 [label="8 <= 0.25\ngini = 0.209\nsamples = 54\nvalue = [[51, 3]\n[51, 3]\n[50, 4]\n[46, 8]\n[18, 36]]", fillcolor="#e5813959"] ;
8 -> 26 ;
27 [label="12 <= 0.011\ngini = 0.202\nsamples = 53\nvalue = [[51, 2]\n[50, 3]\n[49, 4]\n[45, 8]\n[17, 36]]", fillcolor="#e581395e"] ;
26 -> 27 ;
28 [label="2 <= 0.01\ngini = 0.192\nsamples = 50\nvalue = [[49, 1]\n[47, 3]\n[46, 4]\n[43, 7]\n[15, 35]]", fillcolor="#e5813966"] ;
27 -> 28 ;
29 [label="5 <= 0.5\ngini = 0.214\nsamples = 40\nvalue = [[39, 1]\n[37, 3]\n[37, 3]\n[33, 7]\n[14, 26]]", fillcolor="#e5813954"] ;
28 -> 29 ;
30 [label="2 <= 0.006\ngini = 0.205\nsamples = 39\nvalue = [[39, 0]\n[36, 3]\n[36, 3]\n[32, 7]\n[13, 26]]", fillcolor="#e581395c"] ;
29 -> 30 ;
31 [label="11 <= 0.132\ngini = 0.185\nsamples = 28\nvalue = [[28, 0]\n[26, 2]\n[25, 3]\n[25, 3]\n[8, 20]]", fillcolor="#e581396c"] ;
30 -> 31 ;
32 [label="1 <= 0.5\ngini = 0.119\nsamples = 11\nvalue = [[11, 0]\n[11, 0]\n[9, 2]\n[11, 0]\n[2, 9]]", fillcolor="#e58139a0"] ;
31 -> 32 ;
33 [label="11 <= 0.079\ngini = 0.178\nsamples = 3\nvalue = [[3, 0]\n[3, 0]\n[1, 2]\n[3, 0]\n[2, 1]]", fillcolor="#e5813971"] ;
32 -> 33 ;
34 [label="gini = 0.0\nsamples = 2\nvalue = [[2, 0]\n[2, 0]\n[0, 2]\n[2, 0]\n[2, 0]]", fillcolor="#e58139ff"] ;
33 -> 34 ;
35 [label="gini = 0.0\nsamples = 1\nvalue = [[1, 0]\n[1, 0]\n[1, 0]\n[1, 0]\n[0, 1]]", fillcolor="#e58139ff"] ;
33 -> 35 ;
36 [label="gini = 0.0\nsamples = 8\nvalue = [[8, 0]\n[8, 0]\n[8, 0]\n[8, 0]\n[0, 8]]", fillcolor="#e58139ff"] ;
32 -> 36 ;
37 [label="11 <= 0.237\ngini = 0.213\nsamples = 17\nvalue = [[17, 0]\n[15, 2]\n[16, 1]\n[14, 3]\n[6, 11]]", fillcolor="#e5813955"] ;
31 -> 37 ;
38 [label="12 <= 0.001\ngini = 0.251\nsamples = 13\nvalue = [[13, 0]\n[11, 2]\n[12, 1]\n[10, 3]\n[6, 7]]", fillcolor="#e5813937"] ;
37 -> 38 ;
39 [label="2 <= 0.002\ngini = 0.271\nsamples = 11\nvalue = [[11, 0]\n[9, 2]\n[10, 1]\n[8, 3]\n[6, 5]]", fillcolor="#e5813927"] ;
38 -> 39 ;
40 [label="gini = 0.0\nsamples = 1\nvalue = [[1, 0]\n[1, 0]\n[1, 0]\n[0, 1]\n[1, 0]]", fillcolor="#e58139ff"] ;
39 -> 40 ;
41 [label="11 <= 0.184\ngini = 0.264\nsamples = 10\nvalue = [[10, 0]\n[8, 2]\n[9, 1]\n[8, 2]\n[5, 5]]", fillcolor="#e581392d"] ;
39 -> 41 ;
42 [label="5 <= 0.167\ngini = 0.224\nsamples = 5\nvalue = [[5, 0]\n[4, 1]\n[4, 1]\n[5, 0]\n[2, 3]]", fillcolor="#e581394c"] ;
41 -> 42 ;
43 [label="gini = 0.0\nsamples = 1\nvalue = [[1, 0]\n[1, 0]\n[0, 1]\n[1, 0]\n[1, 0]]", fillcolor="#e58139ff"] ;
42 -> 43 ;
44 [label="0 <= 0.5\ngini = 0.15\nsamples = 4\nvalue = [[4, 0]\n[3, 1]\n[4, 0]\n[4, 0]\n[1, 3]]", fillcolor="#e5813987"] ;
42 -> 44 ;
45 [label="gini = 0.2\nsamples = 2\nvalue = [[2, 0]\n[1, 1]\n[2, 0]\n[2, 0]\n[1, 1]]", fillcolor="#e5813960"] ;
44 -> 45 ;
46 [label="gini = 0.0\nsamples = 2\nvalue = [[2, 0]\n[2, 0]\n[2, 0]\n[2, 0]\n[0, 2]]", fillcolor="#e58139ff"] ;
44 -> 46 ;
47 [label="1 <= 0.5\ngini = 0.256\nsamples = 5\nvalue = [[5, 0]\n[4, 1]\n[5, 0]\n[3, 2]\n[3, 2]]", fillcolor="#e5813933"] ;
41 -> 47 ;
48 [label="6 <= 0.25\ngini = 0.178\nsamples = 3\nvalue = [[3, 0]\n[2, 1]\n[3, 0]\n[3, 0]\n[1, 2]]", fillcolor="#e5813971"] ;
47 -> 48 ;
49 [label="gini = 0.0\nsamples = 2\nvalue = [[2, 0]\n[2, 0]\n[2, 0]\n[2, 0]\n[0, 2]]", fillcolor="#e58139ff"] ;
48 -> 49 ;
50 [label="gini = 0.0\nsamples = 1\nvalue = [[1, 0]\n[0, 1]\n[1, 0]\n[1, 0]\n[1, 0]]", fillcolor="#e58139ff"] ;
48 -> 50 ;
51 [label="gini = 0.0\nsamples = 2\nvalue = [[2, 0]\n[2, 0]\n[2, 0]\n[0, 2]\n[2, 0]]", fillcolor="#e58139ff"] ;
47 -> 51 ;
52 [label="gini = 0.0\nsamples = 2\nvalue = [[2, 0]\n[2, 0]\n[2, 0]\n[2, 0]\n[0, 2]]", fillcolor="#e58139ff"] ;
38 -> 52 ;
53 [label="gini = 0.0\nsamples = 4\nvalue = [[4, 0]\n[4, 0]\n[4, 0]\n[4, 0]\n[0, 4]]", fillcolor="#e58139ff"] ;
37 -> 53 ;
54 [label="12 <= 0.0\ngini = 0.225\nsamples = 11\nvalue = [[11, 0]\n[10, 1]\n[11, 0]\n[7, 4]\n[5, 6]]", fillcolor="#e581394c"] ;
30 -> 54 ;
55 [label="11 <= 0.158\ngini = 0.216\nsamples = 10\nvalue = [[10, 0]\n[9, 1]\n[10, 0]\n[7, 3]\n[4, 6]]", fillcolor="#e5813953"] ;
54 -> 55 ;
56 [label="15 <= 0.958\ngini = 0.198\nsamples = 9\nvalue = [[9, 0]\n[8, 1]\n[9, 0]\n[7, 2]\n[3, 6]]", fillcolor="#e5813962"] ;
55 -> 56 ;
57 [label="5 <= 0.167\ngini = 0.163\nsamples = 7\nvalue = [[7, 0]\n[7, 0]\n[7, 0]\n[5, 2]\n[2, 5]]", fillcolor="#e581397d"] ;
56 -> 57 ;
58 [label="gini = 0.0\nsamples = 2\nvalue = [[2, 0]\n[2, 0]\n[2, 0]\n[2, 0]\n[0, 2]]", fillcolor="#e58139ff"] ;
57 -> 58 ;
59 [label="4 <= 0.75\ngini = 0.192\nsamples = 5\nvalue = [[5, 0]\n[5, 0]\n[5, 0]\n[3, 2]\n[2, 3]]", fillcolor="#e5813966"] ;
57 -> 59 ;
60 [label="11 <= 0.026\ngini = 0.15\nsamples = 4\nvalue = [[4, 0]\n[4, 0]\n[4, 0]\n[3, 1]\n[1, 3]]", fillcolor="#e5813987"] ;
59 -> 60 ;
61 [label="15 <= 0.69\ngini = 0.2\nsamples = 2\nvalue = [[2, 0]\n[2, 0]\n[2, 0]\n[1, 1]\n[1, 1]]", fillcolor="#e5813960"] ;
60 -> 61 ;
62 [label="gini = 0.0\nsamples = 1\nvalue = [[1, 0]\n[1, 0]\n[1, 0]\n[1, 0]\n[0, 1]]", fillcolor="#e58139ff"] ;
61 -> 62 ;
63 [label="gini = 0.0\nsamples = 1\nvalue = [[1, 0]\n[1, 0]\n[1, 0]\n[0, 1]\n[1, 0]]", fillcolor="#e58139ff"] ;
61 -> 63 ;
64 [label="gini = 0.0\nsamples = 2\nvalue = [[2, 0]\n[2, 0]\n[2, 0]\n[2, 0]\n[0, 2]]", fillcolor="#e58139ff"] ;
60 -> 64 ;
65 [label="gini = 0.0\nsamples = 1\nvalue = [[1, 0]\n[1, 0]\n[1, 0]\n[0, 1]\n[1, 0]]", fillcolor="#e58139ff"] ;
59 -> 65 ;
66 [label="gini = 0.2\nsamples = 2\nvalue = [[2, 0]\n[1, 1]\n[2, 0]\n[2, 0]\n[1, 1]]", fillcolor="#e5813960"] ;
56 -> 66 ;
67 [label="gini = 0.0\nsamples = 1\nvalue = [[1, 0]\n[1, 0]\n[1, 0]\n[0, 1]\n[1, 0]]", fillcolor="#e58139ff"] ;
55 -> 67 ;
68 [label="gini = 0.0\nsamples = 1\nvalue = [[1, 0]\n[1, 0]\n[1, 0]\n[0, 1]\n[1, 0]]", fillcolor="#e58139ff"] ;
54 -> 68 ;
69 [label="gini = 0.0\nsamples = 1\nvalue = [[0, 1]\n[1, 0]\n[1, 0]\n[1, 0]\n[1, 0]]", fillcolor="#e58139ff"] ;
29 -> 69 ;
70 [label="11 <= 0.211\ngini = 0.072\nsamples = 10\nvalue = [[10, 0]\n[10, 0]\n[9, 1]\n[10, 0]\n[1, 9]]", fillcolor="#e58139c6"] ;
28 -> 70 ;
71 [label="gini = 0.0\nsamples = 8\nvalue = [[8, 0]\n[8, 0]\n[8, 0]\n[8, 0]\n[0, 8]]", fillcolor="#e58139ff"] ;
70 -> 71 ;
72 [label="15 <= 0.958\ngini = 0.2\nsamples = 2\nvalue = [[2, 0]\n[2, 0]\n[1, 1]\n[2, 0]\n[1, 1]]", fillcolor="#e5813960"] ;
70 -> 72 ;
73 [label="gini = 0.0\nsamples = 1\nvalue = [[1, 0]\n[1, 0]\n[0, 1]\n[1, 0]\n[1, 0]]", fillcolor="#e58139ff"] ;
72 -> 73 ;
74 [label="gini = 0.0\nsamples = 1\nvalue = [[1, 0]\n[1, 0]\n[1, 0]\n[1, 0]\n[0, 1]]", fillcolor="#e58139ff"] ;
72 -> 74 ;
75 [label="0 <= 0.5\ngini = 0.267\nsamples = 3\nvalue = [[2, 1]\n[3, 0]\n[3, 0]\n[2, 1]\n[2, 1]]", fillcolor="#e581392a"] ;
27 -> 75 ;
76 [label="gini = 0.0\nsamples = 1\nvalue = [[0, 1]\n[1, 0]\n[1, 0]\n[1, 0]\n[1, 0]]", fillcolor="#e58139ff"] ;
75 -> 76 ;
77 [label="6 <= 0.25\ngini = 0.2\nsamples = 2\nvalue = [[2, 0]\n[2, 0]\n[2, 0]\n[1, 1]\n[1, 1]]", fillcolor="#e5813960"] ;
75 -> 77 ;
78 [label="gini = 0.0\nsamples = 1\nvalue = [[1, 0]\n[1, 0]\n[1, 0]\n[1, 0]\n[0, 1]]", fillcolor="#e58139ff"] ;
77 -> 78 ;
79 [label="gini = 0.0\nsamples = 1\nvalue = [[1, 0]\n[1, 0]\n[1, 0]\n[0, 1]\n[1, 0]]", fillcolor="#e58139ff"] ;
77 -> 79 ;
80 [label="gini = 0.0\nsamples = 1\nvalue = [[0, 1]\n[1, 0]\n[1, 0]\n[1, 0]\n[1, 0]]", fillcolor="#e58139ff"] ;
26 -> 80 ;
81 [label="11 <= 0.5\ngini = 0.109\nsamples = 13\nvalue = [[13, 0]\n[12, 1]\n[12, 1]\n[13, 0]\n[2, 11]]", fillcolor="#e58139a8"] ;
7 -> 81 ;
82 [label="1 <= 0.5\ngini = 0.061\nsamples = 12\nvalue = [[12, 0]\n[11, 1]\n[12, 0]\n[12, 0]\n[1, 11]]", fillcolor="#e58139ce"] ;
81 -> 82 ;
83 [label="0 <= 0.5\ngini = 0.2\nsamples = 2\nvalue = [[2, 0]\n[1, 1]\n[2, 0]\n[2, 0]\n[1, 1]]", fillcolor="#e5813960"] ;
82 -> 83 ;
84 [label="gini = 0.0\nsamples = 1\nvalue = [[1, 0]\n[1, 0]\n[1, 0]\n[1, 0]\n[0, 1]]", fillcolor="#e58139ff"] ;
83 -> 84 ;
85 [label="gini = 0.0\nsamples = 1\nvalue = [[1, 0]\n[0, 1]\n[1, 0]\n[1, 0]\n[1, 0]]", fillcolor="#e58139ff"] ;
83 -> 85 ;
86 [label="gini = 0.0\nsamples = 10\nvalue = [[10, 0]\n[10, 0]\n[10, 0]\n[10, 0]\n[0, 10]]", fillcolor="#e58139ff"] ;
82 -> 86 ;
87 [label="gini = 0.0\nsamples = 1\nvalue = [[1, 0]\n[1, 0]\n[0, 1]\n[1, 0]\n[1, 0]]", fillcolor="#e58139ff"] ;
81 -> 87 ;
88 [label="3 <= 0.5\ngini = 0.281\nsamples = 38\nvalue = [[32, 6]\n[32, 6]\n[33, 5]\n[35, 3]\n[20, 18]]", fillcolor="#e581391f"] ;
2 -> 88 ;
89 [label="7 <= 0.5\ngini = 0.269\nsamples = 14\nvalue = [[8, 6]\n[13, 1]\n[13, 1]\n[13, 1]\n[9, 5]]", fillcolor="#e5813928"] ;
88 -> 89 ;
90 [label="4 <= 0.25\ngini = 0.128\nsamples = 5\nvalue = [[4, 1]\n[5, 0]\n[5, 0]\n[5, 0]\n[1, 4]]", fillcolor="#e5813999"] ;
89 -> 90 ;
91 [label="0 <= 0.5\ngini = 0.2\nsamples = 2\nvalue = [[1, 1]\n[2, 0]\n[2, 0]\n[2, 0]\n[1, 1]]", fillcolor="#e5813960"] ;
90 -> 91 ;
92 [label="gini = 0.0\nsamples = 1\nvalue = [[0, 1]\n[1, 0]\n[1, 0]\n[1, 0]\n[1, 0]]", fillcolor="#e58139ff"] ;
91 -> 92 ;
93 [label="gini = 0.0\nsamples = 1\nvalue = [[1, 0]\n[1, 0]\n[1, 0]\n[1, 0]\n[0, 1]]", fillcolor="#e58139ff"] ;
91 -> 93 ;
94 [label="gini = 0.0\nsamples = 3\nvalue = [[3, 0]\n[3, 0]\n[3, 0]\n[3, 0]\n[0, 3]]", fillcolor="#e58139ff"] ;
90 -> 94 ;
95 [label="1 <= 0.5\ngini = 0.257\nsamples = 9\nvalue = [[4, 5]\n[8, 1]\n[8, 1]\n[8, 1]\n[8, 1]]", fillcolor="#e5813932"] ;
89 -> 95 ;
96 [label="2 <= 0.004\ngini = 0.267\nsamples = 3\nvalue = [[3, 0]\n[2, 1]\n[3, 0]\n[2, 1]\n[2, 1]]", fillcolor="#e581392a"] ;
95 -> 96 ;
97 [label="4 <= 0.5\ngini = 0.2\nsamples = 2\nvalue = [[2, 0]\n[2, 0]\n[2, 0]\n[1, 1]\n[1, 1]]", fillcolor="#e5813960"] ;
96 -> 97 ;
98 [label="gini = 0.0\nsamples = 1\nvalue = [[1, 0]\n[1, 0]\n[1, 0]\n[1, 0]\n[0, 1]]", fillcolor="#e58139ff"] ;
97 -> 98 ;
99 [label="gini = 0.0\nsamples = 1\nvalue = [[1, 0]\n[1, 0]\n[1, 0]\n[0, 1]\n[1, 0]]", fillcolor="#e58139ff"] ;
97 -> 99 ;
100 [label="gini = 0.0\nsamples = 1\nvalue = [[1, 0]\n[0, 1]\n[1, 0]\n[1, 0]\n[1, 0]]", fillcolor="#e58139ff"] ;
96 -> 100 ;
101 [label="6 <= 0.25\ngini = 0.111\nsamples = 6\nvalue = [[1, 5]\n[6, 0]\n[5, 1]\n[6, 0]\n[6, 0]]", fillcolor="#e58139a6"] ;
95 -> 101 ;
102 [label="gini = 0.0\nsamples = 1\nvalue = [[1, 0]\n[1, 0]\n[0, 1]\n[1, 0]\n[1, 0]]", fillcolor="#e58139ff"] ;
101 -> 102 ;
103 [label="gini = 0.0\nsamples = 5\nvalue = [[0, 5]\n[5, 0]\n[5, 0]\n[5, 0]\n[5, 0]]", fillcolor="#e58139ff"] ;
101 -> 103 ;
104 [label="11 <= 0.079\ngini = 0.251\nsamples = 24\nvalue = [[24, 0]\n[19, 5]\n[20, 4]\n[22, 2]\n[11, 13]]", fillcolor="#e5813937"] ;
88 -> 104 ;
105 [label="15 <= 0.958\ngini = 0.272\nsamples = 16\nvalue = [[16, 0]\n[11, 5]\n[14, 2]\n[14, 2]\n[9, 7]]", fillcolor="#e5813926"] ;
104 -> 105 ;
106 [label="5 <= 0.5\ngini = 0.251\nsamples = 11\nvalue = [[11, 0]\n[9, 2]\n[10, 1]\n[9, 2]\n[5, 6]]", fillcolor="#e5813937"] ;
105 -> 106 ;
107 [label="5 <= 0.167\ngini = 0.232\nsamples = 10\nvalue = [[10, 0]\n[9, 1]\n[9, 1]\n[8, 2]\n[4, 6]]", fillcolor="#e5813946"] ;
106 -> 107 ;
108 [label="4 <= 0.25\ngini = 0.2\nsamples = 4\nvalue = [[4, 0]\n[4, 0]\n[4, 0]\n[2, 2]\n[2, 2]]", fillcolor="#e5813960"] ;
107 -> 108 ;
109 [label="gini = 0.0\nsamples = 1\nvalue = [[1, 0]\n[1, 0]\n[1, 0]\n[0, 1]\n[1, 0]]", fillcolor="#e58139ff"] ;
108 -> 109 ;
110 [label="11 <= 0.026\ngini = 0.178\nsamples = 3\nvalue = [[3, 0]\n[3, 0]\n[3, 0]\n[2, 1]\n[1, 2]]", fillcolor="#e5813971"] ;
108 -> 110 ;
111 [label="gini = 0.0\nsamples = 2\nvalue = [[2, 0]\n[2, 0]\n[2, 0]\n[2, 0]\n[0, 2]]", fillcolor="#e58139ff"] ;
110 -> 111 ;
112 [label="gini = 0.0\nsamples = 1\nvalue = [[1, 0]\n[1, 0]\n[1, 0]\n[0, 1]\n[1, 0]]", fillcolor="#e58139ff"] ;
110 -> 112 ;
113 [label="12 <= 0.005\ngini = 0.2\nsamples = 6\nvalue = [[6, 0]\n[5, 1]\n[5, 1]\n[6, 0]\n[2, 4]]", fillcolor="#e5813960"] ;
107 -> 113 ;
114 [label="0 <= 0.5\ngini = 0.15\nsamples = 4\nvalue = [[4, 0]\n[3, 1]\n[4, 0]\n[4, 0]\n[1, 3]]", fillcolor="#e5813987"] ;
113 -> 114 ;
115 [label="gini = 0.0\nsamples = 2\nvalue = [[2, 0]\n[2, 0]\n[2, 0]\n[2, 0]\n[0, 2]]", fillcolor="#e58139ff"] ;
114 -> 115 ;
116 [label="4 <= 0.25\ngini = 0.2\nsamples = 2\nvalue = [[2, 0]\n[1, 1]\n[2, 0]\n[2, 0]\n[1, 1]]", fillcolor="#e5813960"] ;
114 -> 116 ;
117 [label="gini = 0.0\nsamples = 1\nvalue = [[1, 0]\n[1, 0]\n[1, 0]\n[1, 0]\n[0, 1]]", fillcolor="#e58139ff"] ;
116 -> 117 ;
118 [label="gini = 0.0\nsamples = 1\nvalue = [[1, 0]\n[0, 1]\n[1, 0]\n[1, 0]\n[1, 0]]", fillcolor="#e58139ff"] ;
116 -> 118 ;
119 [label="2 <= 0.008\ngini = 0.2\nsamples = 2\nvalue = [[2, 0]\n[2, 0]\n[1, 1]\n[2, 0]\n[1, 1]]", fillcolor="#e5813960"] ;
113 -> 119 ;
120 [label="gini = 0.0\nsamples = 1\nvalue = [[1, 0]\n[1, 0]\n[1, 0]\n[1, 0]\n[0, 1]]", fillcolor="#e58139ff"] ;
119 -> 120 ;
121 [label="gini = 0.0\nsamples = 1\nvalue = [[1, 0]\n[1, 0]\n[0, 1]\n[1, 0]\n[1, 0]]", fillcolor="#e58139ff"] ;
119 -> 121 ;
122 [label="gini = 0.0\nsamples = 1\nvalue = [[1, 0]\n[0, 1]\n[1, 0]\n[1, 0]\n[1, 0]]", fillcolor="#e58139ff"] ;
106 -> 122 ;
123 [label="7 <= 0.25\ngini = 0.224\nsamples = 5\nvalue = [[5, 0]\n[2, 3]\n[4, 1]\n[5, 0]\n[4, 1]]", fillcolor="#e581394c"] ;
105 -> 123 ;
124 [label="5 <= 0.167\ngini = 0.15\nsamples = 4\nvalue = [[4, 0]\n[1, 3]\n[4, 0]\n[4, 0]\n[3, 1]]", fillcolor="#e5813987"] ;
123 -> 124 ;
125 [label="gini = 0.0\nsamples = 2\nvalue = [[2, 0]\n[0, 2]\n[2, 0]\n[2, 0]\n[2, 0]]", fillcolor="#e58139ff"] ;
124 -> 125 ;
126 [label="6 <= 0.25\ngini = 0.2\nsamples = 2\nvalue = [[2, 0]\n[1, 1]\n[2, 0]\n[2, 0]\n[1, 1]]", fillcolor="#e5813960"] ;
124 -> 126 ;
127 [label="gini = 0.0\nsamples = 1\nvalue = [[1, 0]\n[1, 0]\n[1, 0]\n[1, 0]\n[0, 1]]", fillcolor="#e58139ff"] ;
126 -> 127 ;
128 [label="gini = 0.0\nsamples = 1\nvalue = [[1, 0]\n[0, 1]\n[1, 0]\n[1, 0]\n[1, 0]]", fillcolor="#e58139ff"] ;
126 -> 128 ;
129 [label="gini = 0.0\nsamples = 1\nvalue = [[1, 0]\n[1, 0]\n[0, 1]\n[1, 0]\n[1, 0]]", fillcolor="#e58139ff"] ;
123 -> 129 ;
130 [label="0 <= 0.5\ngini = 0.15\nsamples = 8\nvalue = [[8, 0]\n[8, 0]\n[6, 2]\n[8, 0]\n[2, 6]]", fillcolor="#e5813987"] ;
104 -> 130 ;
131 [label="11 <= 0.132\ngini = 0.178\nsamples = 3\nvalue = [[3, 0]\n[3, 0]\n[1, 2]\n[3, 0]\n[2, 1]]", fillcolor="#e5813971"] ;
130 -> 131 ;
132 [label="gini = 0.0\nsamples = 1\nvalue = [[1, 0]\n[1, 0]\n[1, 0]\n[1, 0]\n[0, 1]]", fillcolor="#e58139ff"] ;
131 -> 132 ;
133 [label="gini = 0.0\nsamples = 2\nvalue = [[2, 0]\n[2, 0]\n[0, 2]\n[2, 0]\n[2, 0]]", fillcolor="#e58139ff"] ;
131 -> 133 ;
134 [label="gini = 0.0\nsamples = 5\nvalue = [[5, 0]\n[5, 0]\n[5, 0]\n[5, 0]\n[0, 5]]", fillcolor="#e58139ff"] ;
130 -> 134 ;
135 [label="0 <= 0.5\ngini = 0.3\nsamples = 6050\nvalue = [[5892, 158]\n[4526, 1524]\n[4112, 1938]\n[4668, 1382]\n[5002, 1048]]", fillcolor="#e5813910"] ;
1 -> 135 ;
136 [label="14 <= 0.183\ngini = 0.298\nsamples = 3273\nvalue = [[3223, 50]\n[2615, 658]\n[2196, 1077]\n[2433, 840]\n[2625, 648]]", fillcolor="#e5813911"] ;
135 -> 136 ;
137 [label="11 <= 0.079\ngini = 0.3\nsamples = 2647\nvalue = [[2602, 45]\n[2081, 566]\n[1786, 861]\n[2038, 609]\n[2081, 566]]", fillcolor="#e5813910"] ;
136 -> 137 ;
138 [label="9 <= 0.25\ngini = 0.298\nsamples = 2247\nvalue = [[2209, 38]\n[1737, 510]\n[1487, 760]\n[1715, 532]\n[1840, 407]]", fillcolor="#e5813912"] ;
137 -> 138 ;
139 [label="4 <= 0.25\ngini = 0.296\nsamples = 1976\nvalue = [[1946, 30]\n[1519, 457]\n[1282, 694]\n[1502, 474]\n[1655, 321]]", fillcolor="#e5813913"] ;
138 -> 139 ;
140 [label="5 <= 0.167\ngini = 0.29\nsamples = 763\nvalue = [[752, 11]\n[542, 221]\n[484, 279]\n[606, 157]\n[668, 95]]", fillcolor="#e5813918"] ;
139 -> 140 ;
141 [label="12 <= 0.05\ngini = 0.283\nsamples = 44\nvalue = [[43, 1]\n[26, 18]\n[38, 6]\n[38, 6]\n[31, 13]]", fillcolor="#e581391d"] ;
140 -> 141 ;
142 [label="8 <= 0.5\ngini = 0.293\nsamples = 38\nvalue = [[37, 1]\n[26, 12]\n[32, 6]\n[32, 6]\n[25, 13]]", fillcolor="#e5813915"] ;
141 -> 142 ;
143 [label="12 <= 0.013\ngini = 0.292\nsamples = 23\nvalue = [[22, 1]\n[14, 9]\n[17, 6]\n[20, 3]\n[19, 4]]", fillcolor="#e5813916"] ;
142 -> 143 ;
144 [label="11 <= 0.026\ngini = 0.288\nsamples = 22\nvalue = [[21, 1]\n[13, 9]\n[16, 6]\n[19, 3]\n[19, 3]]", fillcolor="#e581391a"] ;
143 -> 144 ;
145 [label="3 <= 0.5\ngini = 0.286\nsamples = 19\nvalue = [[19, 0]\n[12, 7]\n[13, 6]\n[16, 3]\n[16, 3]]", fillcolor="#e581391b"] ;
144 -> 145 ;
146 [label="1 <= 0.5\ngini = 0.224\nsamples = 5\nvalue = [[5, 0]\n[2, 3]\n[5, 0]\n[4, 1]\n[4, 1]]", fillcolor="#e581394c"] ;
145 -> 146 ;
147 [label="gini = 0.0\nsamples = 1\nvalue = [[1, 0]\n[1, 0]\n[1, 0]\n[1, 0]\n[0, 1]]", fillcolor="#e58139ff"] ;
146 -> 147 ;
148 [label="6 <= 0.25\ngini = 0.15\nsamples = 4\nvalue = [[4, 0]\n[1, 3]\n[4, 0]\n[3, 1]\n[4, 0]]", fillcolor="#e5813987"] ;
146 -> 148 ;
149 [label="2 <= 0.006\ngini = 0.2\nsamples = 2\nvalue = [[2, 0]\n[1, 1]\n[2, 0]\n[1, 1]\n[2, 0]]", fillcolor="#e5813960"] ;
148 -> 149 ;
150 [label="gini = 0.0\nsamples = 1\nvalue = [[1, 0]\n[0, 1]\n[1, 0]\n[1, 0]\n[1, 0]]", fillcolor="#e58139ff"] ;
149 -> 150 ;
151 [label="gini = 0.0\nsamples = 1\nvalue = [[1, 0]\n[1, 0]\n[1, 0]\n[0, 1]\n[1, 0]]", fillcolor="#e58139ff"] ;
149 -> 151 ;
152 [label="gini = 0.0\nsamples = 2\nvalue = [[2, 0]\n[0, 2]\n[2, 0]\n[2, 0]\n[2, 0]]", fillcolor="#e58139ff"] ;
148 -> 152 ;
153 [label="14 <= 0.083\ngini = 0.278\nsamples = 14\nvalue = [[14, 0]\n[10, 4]\n[8, 6]\n[12, 2]\n[12, 2]]", fillcolor="#e5813922"] ;
145 -> 153 ;
154 [label="2 <= 0.006\ngini = 0.237\nsamples = 9\nvalue = [[9, 0]\n[7, 2]\n[4, 5]\n[9, 0]\n[7, 2]]", fillcolor="#e5813942"] ;
153 -> 154 ;
155 [label="1 <= 0.5\ngini = 0.128\nsamples = 5\nvalue = [[5, 0]\n[4, 1]\n[1, 4]\n[5, 0]\n[5, 0]]", fillcolor="#e5813999"] ;
154 -> 155 ;
156 [label="15 <= 0.958\ngini = 0.2\nsamples = 2\nvalue = [[2, 0]\n[1, 1]\n[1, 1]\n[2, 0]\n[2, 0]]", fillcolor="#e5813960"] ;
155 -> 156 ;
157 [label="gini = 0.0\nsamples = 1\nvalue = [[1, 0]\n[0, 1]\n[1, 0]\n[1, 0]\n[1, 0]]", fillcolor="#e58139ff"] ;
156 -> 157 ;
158 [label="gini = 0.0\nsamples = 1\nvalue = [[1, 0]\n[1, 0]\n[0, 1]\n[1, 0]\n[1, 0]]", fillcolor="#e58139ff"] ;
156 -> 158 ;
159 [label="gini = 0.0\nsamples = 3\nvalue = [[3, 0]\n[3, 0]\n[0, 3]\n[3, 0]\n[3, 0]]", fillcolor="#e58139ff"] ;
155 -> 159 ;
160 [label="14 <= 0.05\ngini = 0.25\nsamples = 4\nvalue = [[4, 0]\n[3, 1]\n[3, 1]\n[4, 0]\n[2, 2]]", fillcolor="#e5813938"] ;
154 -> 160 ;
161 [label="gini = 0.0\nsamples = 2\nvalue = [[2, 0]\n[2, 0]\n[2, 0]\n[2, 0]\n[0, 2]]", fillcolor="#e58139ff"] ;
160 -> 161 ;
162 [label="gini = 0.2\nsamples = 2\nvalue = [[2, 0]\n[1, 1]\n[1, 1]\n[2, 0]\n[2, 0]]", fillcolor="#e5813960"] ;
160 -> 162 ;
163 [label="2 <= 0.006\ngini = 0.256\nsamples = 5\nvalue = [[5, 0]\n[3, 2]\n[4, 1]\n[3, 2]\n[5, 0]]", fillcolor="#e5813933"] ;
153 -> 163 ;
164 [label="gini = 0.0\nsamples = 2\nvalue = [[2, 0]\n[2, 0]\n[2, 0]\n[0, 2]\n[2, 0]]", fillcolor="#e58139ff"] ;
163 -> 164 ;
165 [label="15 <= 0.958\ngini = 0.178\nsamples = 3\nvalue = [[3, 0]\n[1, 2]\n[2, 1]\n[3, 0]\n[3, 0]]", fillcolor="#e5813971"] ;
163 -> 165 ;
166 [label="gini = 0.0\nsamples = 1\nvalue = [[1, 0]\n[1, 0]\n[0, 1]\n[1, 0]\n[1, 0]]", fillcolor="#e58139ff"] ;
165 -> 166 ;
167 [label="gini = 0.0\nsamples = 2\nvalue = [[2, 0]\n[0, 2]\n[2, 0]\n[2, 0]\n[2, 0]]", fillcolor="#e58139ff"] ;
165 -> 167 ;
168 [label="14 <= 0.117\ngini = 0.178\nsamples = 3\nvalue = [[2, 1]\n[1, 2]\n[3, 0]\n[3, 0]\n[3, 0]]", fillcolor="#e5813971"] ;
144 -> 168 ;
169 [label="gini = 0.0\nsamples = 1\nvalue = [[0, 1]\n[1, 0]\n[1, 0]\n[1, 0]\n[1, 0]]", fillcolor="#e58139ff"] ;
168 -> 169 ;
170 [label="gini = 0.0\nsamples = 2\nvalue = [[2, 0]\n[0, 2]\n[2, 0]\n[2, 0]\n[2, 0]]", fillcolor="#e58139ff"] ;
168 -> 170 ;
171 [label="gini = 0.0\nsamples = 1\nvalue = [[1, 0]\n[1, 0]\n[1, 0]\n[1, 0]\n[0, 1]]", fillcolor="#e58139ff"] ;
143 -> 171 ;
172 [label="6 <= 0.25\ngini = 0.224\nsamples = 15\nvalue = [[15, 0]\n[12, 3]\n[15, 0]\n[12, 3]\n[6, 9]]", fillcolor="#e581394c"] ;
142 -> 172 ;
173 [label="14 <= 0.05\ngini = 0.185\nsamples = 13\nvalue = [[13, 0]\n[12, 1]\n[13, 0]\n[10, 3]\n[4, 9]]", fillcolor="#e581396c"] ;
172 -> 173 ;
174 [label="2 <= 0.01\ngini = 0.2\nsamples = 2\nvalue = [[2, 0]\n[1, 1]\n[2, 0]\n[1, 1]\n[2, 0]]", fillcolor="#e5813960"] ;
173 -> 174 ;
175 [label="gini = 0.0\nsamples = 1\nvalue = [[1, 0]\n[1, 0]\n[1, 0]\n[0, 1]\n[1, 0]]", fillcolor="#e58139ff"] ;
174 -> 175 ;
176 [label="gini = 0.0\nsamples = 1\nvalue = [[1, 0]\n[0, 1]\n[1, 0]\n[1, 0]\n[1, 0]]", fillcolor="#e58139ff"] ;
174 -> 176 ;
177 [label="14 <= 0.15\ngini = 0.119\nsamples = 11\nvalue = [[11, 0]\n[11, 0]\n[11, 0]\n[9, 2]\n[2, 9]]", fillcolor="#e58139a0"] ;
173 -> 177 ;
178 [label="14 <= 0.117\ngini = 0.072\nsamples = 10\nvalue = [[10, 0]\n[10, 0]\n[10, 0]\n[9, 1]\n[1, 9]]", fillcolor="#e58139c6"] ;
177 -> 178 ;
179 [label="gini = 0.0\nsamples = 7\nvalue = [[7, 0]\n[7, 0]\n[7, 0]\n[7, 0]\n[0, 7]]", fillcolor="#e58139ff"] ;
178 -> 179 ;
180 [label="2 <= 0.006\ngini = 0.178\nsamples = 3\nvalue = [[3, 0]\n[3, 0]\n[3, 0]\n[2, 1]\n[1, 2]]", fillcolor="#e5813971"] ;
178 -> 180 ;
181 [label="gini = 0.0\nsamples = 1\nvalue = [[1, 0]\n[1, 0]\n[1, 0]\n[1, 0]\n[0, 1]]", fillcolor="#e58139ff"] ;
180 -> 181 ;
182 [label="7 <= 0.5\ngini = 0.2\nsamples = 2\nvalue = [[2, 0]\n[2, 0]\n[2, 0]\n[1, 1]\n[1, 1]]", fillcolor="#e5813960"] ;
180 -> 182 ;
183 [label="gini = 0.0\nsamples = 1\nvalue = [[1, 0]\n[1, 0]\n[1, 0]\n[0, 1]\n[1, 0]]", fillcolor="#e58139ff"] ;
182 -> 183 ;
184 [label="gini = 0.0\nsamples = 1\nvalue = [[1, 0]\n[1, 0]\n[1, 0]\n[1, 0]\n[0, 1]]", fillcolor="#e58139ff"] ;
182 -> 184 ;
185 [label="gini = 0.0\nsamples = 1\nvalue = [[1, 0]\n[1, 0]\n[1, 0]\n[0, 1]\n[1, 0]]", fillcolor="#e58139ff"] ;
177 -> 185 ;
186 [label="gini = 0.0\nsamples = 2\nvalue = [[2, 0]\n[0, 2]\n[2, 0]\n[2, 0]\n[2, 0]]", fillcolor="#e58139ff"] ;
172 -> 186 ;
187 [label="gini = 0.0\nsamples = 6\nvalue = [[6, 0]\n[0, 6]\n[6, 0]\n[6, 0]\n[6, 0]]", fillcolor="#e58139ff"] ;
141 -> 187 ;
188 [label="2 <= 0.01\ngini = 0.288\nsamples = 719\nvalue = [[709, 10]\n[516, 203]\n[446, 273]\n[568, 151]\n[637, 82]]", fillcolor="#e581391a"] ;
140 -> 188 ;
189 [label="7 <= 0.25\ngini = 0.28\nsamples = 559\nvalue = [[553, 6]\n[399, 160]\n[332, 227]\n[440, 119]\n[512, 47]]", fillcolor="#e5813920"] ;
188 -> 189 ;
190 [label="15 <= 0.69\ngini = 0.279\nsamples = 344\nvalue = [[339, 5]\n[234, 110]\n[206, 138]\n[285, 59]\n[312, 32]]", fillcolor="#e5813920"] ;
189 -> 190 ;
191 [label="3 <= 0.5\ngini = 0.249\nsamples = 89\nvalue = [[89, 0]\n[67, 22]\n[42, 47]\n[72, 17]\n[86, 3]]", fillcolor="#e5813939"] ;
190 -> 191 ;
192 [label="15 <= 0.232\ngini = 0.272\nsamples = 12\nvalue = [[12, 0]\n[7, 5]\n[10, 2]\n[8, 4]\n[11, 1]]", fillcolor="#e5813926"] ;
191 -> 192 ;
193 [label="8 <= 0.5\ngini = 0.267\nsamples = 6\nvalue = [[6, 0]\n[5, 1]\n[5, 1]\n[3, 3]\n[5, 1]]", fillcolor="#e581392a"] ;
192 -> 193 ;
194 [label="2 <= 0.006\ngini = 0.15\nsamples = 4\nvalue = [[4, 0]\n[4, 0]\n[3, 1]\n[1, 3]\n[4, 0]]", fillcolor="#e5813987"] ;
193 -> 194 ;
195 [label="gini = 0.0\nsamples = 3\nvalue = [[3, 0]\n[3, 0]\n[3, 0]\n[0, 3]\n[3, 0]]", fillcolor="#e58139ff"] ;
194 -> 195 ;
196 [label="gini = 0.0\nsamples = 1\nvalue = [[1, 0]\n[1, 0]\n[0, 1]\n[1, 0]\n[1, 0]]", fillcolor="#e58139ff"] ;
194 -> 196 ;
197 [label="2 <= 0.006\ngini = 0.2\nsamples = 2\nvalue = [[2, 0]\n[1, 1]\n[2, 0]\n[2, 0]\n[1, 1]]", fillcolor="#e5813960"] ;
193 -> 197 ;
198 [label="gini = 0.0\nsamples = 1\nvalue = [[1, 0]\n[0, 1]\n[1, 0]\n[1, 0]\n[1, 0]]", fillcolor="#e58139ff"] ;
197 -> 198 ;
199 [label="gini = 0.0\nsamples = 1\nvalue = [[1, 0]\n[1, 0]\n[1, 0]\n[1, 0]\n[0, 1]]", fillcolor="#e58139ff"] ;
197 -> 199 ;
200 [label="14 <= 0.133\ngini = 0.2\nsamples = 6\nvalue = [[6, 0]\n[2, 4]\n[5, 1]\n[5, 1]\n[6, 0]]", fillcolor="#e5813960"] ;
192 -> 200 ;
201 [label="6 <= 0.25\ngini = 0.15\nsamples = 4\nvalue = [[4, 0]\n[1, 3]\n[3, 1]\n[4, 0]\n[4, 0]]", fillcolor="#e5813987"] ;
200 -> 201 ;
202 [label="gini = 0.0\nsamples = 2\nvalue = [[2, 0]\n[0, 2]\n[2, 0]\n[2, 0]\n[2, 0]]", fillcolor="#e58139ff"] ;
201 -> 202 ;
203 [label="2 <= 0.006\ngini = 0.2\nsamples = 2\nvalue = [[2, 0]\n[1, 1]\n[1, 1]\n[2, 0]\n[2, 0]]", fillcolor="#e5813960"] ;
201 -> 203 ;
204 [label="gini = 0.0\nsamples = 1\nvalue = [[1, 0]\n[1, 0]\n[0, 1]\n[1, 0]\n[1, 0]]", fillcolor="#e58139ff"] ;
203 -> 204 ;
205 [label="gini = 0.0\nsamples = 1\nvalue = [[1, 0]\n[0, 1]\n[1, 0]\n[1, 0]\n[1, 0]]", fillcolor="#e58139ff"] ;
203 -> 205 ;
206 [label="6 <= 0.25\ngini = 0.2\nsamples = 2\nvalue = [[2, 0]\n[1, 1]\n[2, 0]\n[1, 1]\n[2, 0]]", fillcolor="#e5813960"] ;
200 -> 206 ;
207 [label="gini = 0.0\nsamples = 1\nvalue = [[1, 0]\n[1, 0]\n[1, 0]\n[0, 1]\n[1, 0]]", fillcolor="#e58139ff"] ;
206 -> 207 ;
208 [label="gini = 0.0\nsamples = 1\nvalue = [[1, 0]\n[0, 1]\n[1, 0]\n[1, 0]\n[1, 0]]", fillcolor="#e58139ff"] ;
206 -> 208 ;
209 [label="6 <= 0.25\ngini = 0.232\nsamples = 77\nvalue = [[77, 0]\n[60, 17]\n[32, 45]\n[64, 13]\n[75, 2]]", fillcolor="#e5813946"] ;
191 -> 209 ;
210 [label="14 <= 0.05\ngini = 0.26\nsamples = 45\nvalue = [[45, 0]\n[34, 11]\n[23, 22]\n[35, 10]\n[43, 2]]", fillcolor="#e5813930"] ;
209 -> 210 ;
211 [label="2 <= 0.006\ngini = 0.172\nsamples = 22\nvalue = [[22, 0]\n[20, 2]\n[6, 16]\n[18, 4]\n[22, 0]]", fillcolor="#e5813976"] ;
210 -> 211 ;
212 [label="gini = 0.0\nsamples = 9\nvalue = [[9, 0]\n[9, 0]\n[0, 9]\n[9, 0]\n[9, 0]]", fillcolor="#e58139ff"] ;
211 -> 212 ;
213 [label="15 <= 0.232\ngini = 0.237\nsamples = 13\nvalue = [[13, 0]\n[11, 2]\n[6, 7]\n[9, 4]\n[13, 0]]", fillcolor="#e5813942"] ;
211 -> 213 ;
214 [label="1 <= 0.5\ngini = 0.2\nsamples = 4\nvalue = [[4, 0]\n[2, 2]\n[2, 2]\n[4, 0]\n[4, 0]]", fillcolor="#e5813960"] ;
213 -> 214 ;
215 [label="gini = 0.0\nsamples = 1\nvalue = [[1, 0]\n[0, 1]\n[1, 0]\n[1, 0]\n[1, 0]]", fillcolor="#e58139ff"] ;
214 -> 215 ;
216 [label="8 <= 0.5\ngini = 0.178\nsamples = 3\nvalue = [[3, 0]\n[2, 1]\n[1, 2]\n[3, 0]\n[3, 0]]", fillcolor="#e5813971"] ;
214 -> 216 ;
217 [label="gini = 0.2\nsamples = 2\nvalue = [[2, 0]\n[1, 1]\n[1, 1]\n[2, 0]\n[2, 0]]", fillcolor="#e5813960"] ;
216 -> 217 ;
218 [label="gini = 0.0\nsamples = 1\nvalue = [[1, 0]\n[1, 0]\n[0, 1]\n[1, 0]\n[1, 0]]", fillcolor="#e58139ff"] ;
216 -> 218 ;
219 [label="8 <= 0.5\ngini = 0.198\nsamples = 9\nvalue = [[9, 0]\n[9, 0]\n[4, 5]\n[5, 4]\n[9, 0]]", fillcolor="#e5813962"] ;
213 -> 219 ;
220 [label="12 <= 0.005\ngini = 0.2\nsamples = 8\nvalue = [[8, 0]\n[8, 0]\n[4, 4]\n[4, 4]\n[8, 0]]", fillcolor="#e5813960"] ;
219 -> 220 ;
221 [label="gini = 0.2\nsamples = 2\nvalue = [[2, 0]\n[2, 0]\n[1, 1]\n[1, 1]\n[2, 0]]", fillcolor="#e5813960"] ;
220 -> 221 ;
222 [label="gini = 0.2\nsamples = 6\nvalue = [[6, 0]\n[6, 0]\n[3, 3]\n[3, 3]\n[6, 0]]", fillcolor="#e5813960"] ;
220 -> 222 ;
223 [label="gini = 0.0\nsamples = 1\nvalue = [[1, 0]\n[1, 0]\n[0, 1]\n[1, 0]\n[1, 0]]", fillcolor="#e58139ff"] ;
219 -> 223 ;
224 [label="8 <= 0.5\ngini = 0.281\nsamples = 23\nvalue = [[23, 0]\n[14, 9]\n[17, 6]\n[17, 6]\n[21, 2]]", fillcolor="#e581391f"] ;
210 -> 224 ;
225 [label="14 <= 0.15\ngini = 0.228\nsamples = 12\nvalue = [[12, 0]\n[6, 6]\n[11, 1]\n[7, 5]\n[12, 0]]", fillcolor="#e5813949"] ;
224 -> 225 ;
226 [label="14 <= 0.083\ngini = 0.216\nsamples = 10\nvalue = [[10, 0]\n[4, 6]\n[9, 1]\n[7, 3]\n[10, 0]]", fillcolor="#e5813953"] ;
225 -> 226 ;
227 [label="15 <= 0.232\ngini = 0.244\nsamples = 6\nvalue = [[6, 0]\n[4, 2]\n[5, 1]\n[3, 3]\n[6, 0]]", fillcolor="#e581393c"] ;
226 -> 227 ;
228 [label="2 <= 0.006\ngini = 0.2\nsamples = 2\nvalue = [[2, 0]\n[1, 1]\n[1, 1]\n[2, 0]\n[2, 0]]", fillcolor="#e5813960"] ;
227 -> 228 ;
229 [label="gini = 0.0\nsamples = 1\nvalue = [[1, 0]\n[1, 0]\n[0, 1]\n[1, 0]\n[1, 0]]", fillcolor="#e58139ff"] ;
228 -> 229 ;
230 [label="gini = 0.0\nsamples = 1\nvalue = [[1, 0]\n[0, 1]\n[1, 0]\n[1, 0]\n[1, 0]]", fillcolor="#e58139ff"] ;
228 -> 230 ;
231 [label="2 <= 0.006\ngini = 0.15\nsamples = 4\nvalue = [[4, 0]\n[3, 1]\n[4, 0]\n[1, 3]\n[4, 0]]", fillcolor="#e5813987"] ;
227 -> 231 ;
232 [label="gini = 0.0\nsamples = 1\nvalue = [[1, 0]\n[0, 1]\n[1, 0]\n[1, 0]\n[1, 0]]", fillcolor="#e58139ff"] ;
231 -> 232 ;
233 [label="gini = 0.0\nsamples = 3\nvalue = [[3, 0]\n[3, 0]\n[3, 0]\n[0, 3]\n[3, 0]]", fillcolor="#e58139ff"] ;
231 -> 233 ;
234 [label="gini = 0.0\nsamples = 4\nvalue = [[4, 0]\n[0, 4]\n[4, 0]\n[4, 0]\n[4, 0]]", fillcolor="#e58139ff"] ;
226 -> 234 ;
235 [label="gini = 0.0\nsamples = 2\nvalue = [[2, 0]\n[2, 0]\n[2, 0]\n[0, 2]\n[2, 0]]", fillcolor="#e58139ff"] ;
225 -> 235 ;
236 [label="2 <= 0.006\ngini = 0.271\nsamples = 11\nvalue = [[11, 0]\n[8, 3]\n[6, 5]\n[10, 1]\n[9, 2]]", fillcolor="#e5813927"] ;
224 -> 236 ;
237 [label="gini = 0.0\nsamples = 2\nvalue = [[2, 0]\n[0, 2]\n[2, 0]\n[2, 0]\n[2, 0]]", fillcolor="#e58139ff"] ;
236 -> 237 ;
238 [label="15 <= 0.232\ngini = 0.247\nsamples = 9\nvalue = [[9, 0]\n[8, 1]\n[4, 5]\n[8, 1]\n[7, 2]]", fillcolor="#e581393a"] ;
236 -> 238 ;
239 [label="14 <= 0.083\ngini = 0.2\nsamples = 2\nvalue = [[2, 0]\n[1, 1]\n[1, 1]\n[2, 0]\n[2, 0]]", fillcolor="#e5813960"] ;
238 -> 239 ;
240 [label="gini = 0.0\nsamples = 1\nvalue = [[1, 0]\n[1, 0]\n[0, 1]\n[1, 0]\n[1, 0]]", fillcolor="#e58139ff"] ;
239 -> 240 ;
241 [label="gini = 0.0\nsamples = 1\nvalue = [[1, 0]\n[0, 1]\n[1, 0]\n[1, 0]\n[1, 0]]", fillcolor="#e58139ff"] ;
239 -> 241 ;
242 [label="14 <= 0.083\ngini = 0.229\nsamples = 7\nvalue = [[7, 0]\n[7, 0]\n[3, 4]\n[6, 1]\n[5, 2]]", fillcolor="#e5813949"] ;
238 -> 242 ;
243 [label="gini = 0.267\nsamples = 3\nvalue = [[3, 0]\n[3, 0]\n[2, 1]\n[2, 1]\n[2, 1]]", fillcolor="#e581392a"] ;
242 -> 243 ;
244 [label="12 <= 0.013\ngini = 0.15\nsamples = 4\nvalue = [[4, 0]\n[4, 0]\n[1, 3]\n[4, 0]\n[3, 1]]", fillcolor="#e5813987"] ;
242 -> 244 ;
245 [label="14 <= 0.133\ngini = 0.178\nsamples = 3\nvalue = [[3, 0]\n[3, 0]\n[1, 2]\n[3, 0]\n[2, 1]]", fillcolor="#e5813971"] ;
244 -> 245 ;
246 [label="gini = 0.2\nsamples = 2\nvalue = [[2, 0]\n[2, 0]\n[1, 1]\n[2, 0]\n[1, 1]]", fillcolor="#e5813960"] ;
245 -> 246 ;
247 [label="gini = 0.0\nsamples = 1\nvalue = [[1, 0]\n[1, 0]\n[0, 1]\n[1, 0]\n[1, 0]]", fillcolor="#e58139ff"] ;
245 -> 247 ;
248 [label="gini = 0.0\nsamples = 1\nvalue = [[1, 0]\n[1, 0]\n[0, 1]\n[1, 0]\n[1, 0]]", fillcolor="#e58139ff"] ;
244 -> 248 ;
249 [label="12 <= 0.005\ngini = 0.176\nsamples = 32\nvalue = [[32, 0]\n[26, 6]\n[9, 23]\n[29, 3]\n[32, 0]]", fillcolor="#e5813973"] ;
209 -> 249 ;
250 [label="14 <= 0.05\ngini = 0.166\nsamples = 31\nvalue = [[31, 0]\n[26, 5]\n[8, 23]\n[28, 3]\n[31, 0]]", fillcolor="#e581397b"] ;
249 -> 250 ;
251 [label="8 <= 0.25\ngini = 0.205\nsamples = 11\nvalue = [[11, 0]\n[10, 1]\n[4, 7]\n[8, 3]\n[11, 0]]", fillcolor="#e581395c"] ;
250 -> 251 ;
252 [label="2 <= 0.006\ngini = 0.238\nsamples = 8\nvalue = [[8, 0]\n[7, 1]\n[4, 4]\n[5, 3]\n[8, 0]]", fillcolor="#e5813942"] ;
251 -> 252 ;
253 [label="gini = 0.229\nsamples = 7\nvalue = [[7, 0]\n[6, 1]\n[3, 4]\n[5, 2]\n[7, 0]]", fillcolor="#e5813949"] ;
252 -> 253 ;
254 [label="gini = 0.0\nsamples = 1\nvalue = [[1, 0]\n[1, 0]\n[1, 0]\n[0, 1]\n[1, 0]]", fillcolor="#e58139ff"] ;
252 -> 254 ;
255 [label="gini = 0.0\nsamples = 3\nvalue = [[3, 0]\n[3, 0]\n[0, 3]\n[3, 0]\n[3, 0]]", fillcolor="#e58139ff"] ;
251 -> 255 ;
256 [label="2 <= 0.006\ngini = 0.128\nsamples = 20\nvalue = [[20, 0]\n[16, 4]\n[4, 16]\n[20, 0]\n[20, 0]]", fillcolor="#e5813999"] ;
250 -> 256 ;
257 [label="6 <= 0.75\ngini = 0.163\nsamples = 14\nvalue = [[14, 0]\n[10, 4]\n[4, 10]\n[14, 0]\n[14, 0]]", fillcolor="#e581397d"] ;
256 -> 257 ;
258 [label="10 <= 0.667\ngini = 0.178\nsamples = 12\nvalue = [[12, 0]\n[8, 4]\n[4, 8]\n[12, 0]\n[12, 0]]", fillcolor="#e5813971"] ;
257 -> 258 ;
259 [label="gini = 0.0\nsamples = 1\nvalue = [[1, 0]\n[1, 0]\n[0, 1]\n[1, 0]\n[1, 0]]", fillcolor="#e58139ff"] ;
258 -> 259 ;
260 [label="1 <= 0.5\ngini = 0.185\nsamples = 11\nvalue = [[11, 0]\n[7, 4]\n[4, 7]\n[11, 0]\n[11, 0]]", fillcolor="#e581396b"] ;
258 -> 260 ;
261 [label="gini = 0.0\nsamples = 1\nvalue = [[1, 0]\n[1, 0]\n[0, 1]\n[1, 0]\n[1, 0]]", fillcolor="#e58139ff"] ;
260 -> 261 ;
262 [label="14 <= 0.133\ngini = 0.192\nsamples = 10\nvalue = [[10, 0]\n[6, 4]\n[4, 6]\n[10, 0]\n[10, 0]]", fillcolor="#e5813966"] ;
260 -> 262 ;
263 [label="15 <= 0.232\ngini = 0.178\nsamples = 9\nvalue = [[9, 0]\n[6, 3]\n[3, 6]\n[9, 0]\n[9, 0]]", fillcolor="#e5813971"] ;
262 -> 263 ;
264 [label="gini = 0.0\nsamples = 2\nvalue = [[2, 0]\n[2, 0]\n[0, 2]\n[2, 0]\n[2, 0]]", fillcolor="#e58139ff"] ;
263 -> 264 ;
265 [label="14 <= 0.083\ngini = 0.196\nsamples = 7\nvalue = [[7, 0]\n[4, 3]\n[3, 4]\n[7, 0]\n[7, 0]]", fillcolor="#e5813963"] ;
263 -> 265 ;
266 [label="gini = 0.2\nsamples = 4\nvalue = [[4, 0]\n[2, 2]\n[2, 2]\n[4, 0]\n[4, 0]]", fillcolor="#e5813960"] ;
265 -> 266 ;
267 [label="gini = 0.178\nsamples = 3\nvalue = [[3, 0]\n[2, 1]\n[1, 2]\n[3, 0]\n[3, 0]]", fillcolor="#e5813971"] ;
265 -> 267 ;
268 [label="gini = 0.0\nsamples = 1\nvalue = [[1, 0]\n[0, 1]\n[1, 0]\n[1, 0]\n[1, 0]]", fillcolor="#e58139ff"] ;
262 -> 268 ;
269 [label="gini = 0.0\nsamples = 2\nvalue = [[2, 0]\n[2, 0]\n[0, 2]\n[2, 0]\n[2, 0]]", fillcolor="#e58139ff"] ;
257 -> 269 ;
270 [label="gini = 0.0\nsamples = 6\nvalue = [[6, 0]\n[6, 0]\n[0, 6]\n[6, 0]\n[6, 0]]", fillcolor="#e58139ff"] ;
256 -> 270 ;
271 [label="gini = 0.0\nsamples = 1\nvalue = [[1, 0]\n[0, 1]\n[1, 0]\n[1, 0]\n[1, 0]]", fillcolor="#e58139ff"] ;
249 -> 271 ;
272 [label="12 <= 0.018\ngini = 0.285\nsamples = 255\nvalue = [[250, 5]\n[167, 88]\n[164, 91]\n[213, 42]\n[226, 29]]", fillcolor="#e581391c"] ;
190 -> 272 ;
273 [label="8 <= 0.25\ngini = 0.281\nsamples = 241\nvalue = [[236, 5]\n[155, 86]\n[152, 89]\n[206, 35]\n[215, 26]]", fillcolor="#e581391f"] ;
272 -> 273 ;
274 [label="5 <= 0.5\ngini = 0.284\nsamples = 149\nvalue = [[144, 5]\n[89, 60]\n[104, 45]\n[128, 21]\n[131, 18]]", fillcolor="#e581391c"] ;
273 -> 274 ;
275 [label="12 <= 0.005\ngini = 0.283\nsamples = 145\nvalue = [[142, 3]\n[87, 58]\n[100, 45]\n[124, 21]\n[127, 18]]", fillcolor="#e581391e"] ;
274 -> 275 ;
276 [label="2 <= 0.006\ngini = 0.283\nsamples = 143\nvalue = [[140, 3]\n[85, 58]\n[100, 43]\n[122, 21]\n[125, 18]]", fillcolor="#e581391e"] ;
275 -> 276 ;
277 [label="14 <= 0.083\ngini = 0.273\nsamples = 54\nvalue = [[52, 2]\n[29, 25]\n[41, 13]\n[43, 11]\n[51, 3]]", fillcolor="#e5813926"] ;
276 -> 277 ;
278 [label="6 <= 0.25\ngini = 0.264\nsamples = 27\nvalue = [[26, 1]\n[14, 13]\n[24, 3]\n[19, 8]\n[25, 2]]", fillcolor="#e581392c"] ;
277 -> 278 ;
279 [label="1 <= 0.5\ngini = 0.246\nsamples = 19\nvalue = [[18, 1]\n[8, 11]\n[17, 2]\n[16, 3]\n[17, 2]]", fillcolor="#e581393b"] ;
278 -> 279 ;
280 [label="gini = 0.0\nsamples = 2\nvalue = [[2, 0]\n[2, 0]\n[2, 0]\n[0, 2]\n[2, 0]]", fillcolor="#e58139ff"] ;
279 -> 280 ;
281 [label="11 <= 0.026\ngini = 0.219\nsamples = 17\nvalue = [[16, 1]\n[6, 11]\n[15, 2]\n[16, 1]\n[15, 2]]", fillcolor="#e5813951"] ;
279 -> 281 ;
282 [label="14 <= 0.05\ngini = 0.206\nsamples = 15\nvalue = [[15, 0]\n[5, 10]\n[13, 2]\n[14, 1]\n[13, 2]]", fillcolor="#e581395b"] ;
281 -> 282 ;
283 [label="15 <= 0.958\ngini = 0.262\nsamples = 8\nvalue = [[8, 0]\n[4, 4]\n[7, 1]\n[7, 1]\n[6, 2]]", fillcolor="#e581392e"] ;
282 -> 283 ;
284 [label="gini = 0.278\nsamples = 7\nvalue = [[7, 0]\n[4, 3]\n[6, 1]\n[6, 1]\n[5, 2]]", fillcolor="#e5813922"] ;
283 -> 284 ;
285 [label="gini = 0.0\nsamples = 1\nvalue = [[1, 0]\n[0, 1]\n[1, 0]\n[1, 0]\n[1, 0]]", fillcolor="#e58139ff"] ;
283 -> 285 ;
286 [label="gini = 0.098\nsamples = 7\nvalue = [[7, 0]\n[1, 6]\n[6, 1]\n[7, 0]\n[7, 0]]", fillcolor="#e58139b1"] ;
282 -> 286 ;
287 [label="15 <= 0.958\ngini = 0.2\nsamples = 2\nvalue = [[1, 1]\n[1, 1]\n[2, 0]\n[2, 0]\n[2, 0]]", fillcolor="#e5813960"] ;
281 -> 287 ;
288 [label="gini = 0.0\nsamples = 1\nvalue = [[0, 1]\n[1, 0]\n[1, 0]\n[1, 0]\n[1, 0]]", fillcolor="#e58139ff"] ;
287 -> 288 ;
289 [label="gini = 0.0\nsamples = 1\nvalue = [[1, 0]\n[0, 1]\n[1, 0]\n[1, 0]\n[1, 0]]", fillcolor="#e58139ff"] ;
287 -> 289 ;
290 [label="6 <= 0.75\ngini = 0.212\nsamples = 8\nvalue = [[8, 0]\n[6, 2]\n[7, 1]\n[3, 5]\n[8, 0]]", fillcolor="#e5813956"] ;
278 -> 290 ;
291 [label="1 <= 0.5\ngini = 0.18\nsamples = 7\nvalue = [[7, 0]\n[6, 1]\n[6, 1]\n[2, 5]\n[7, 0]]", fillcolor="#e5813970"] ;
290 -> 291 ;
292 [label="14 <= 0.05\ngini = 0.267\nsamples = 3\nvalue = [[3, 0]\n[2, 1]\n[2, 1]\n[2, 1]\n[3, 0]]", fillcolor="#e581392a"] ;
291 -> 292 ;
293 [label="gini = 0.2\nsamples = 2\nvalue = [[2, 0]\n[2, 0]\n[1, 1]\n[1, 1]\n[2, 0]]", fillcolor="#e5813960"] ;
292 -> 293 ;
294 [label="gini = 0.0\nsamples = 1\nvalue = [[1, 0]\n[0, 1]\n[1, 0]\n[1, 0]\n[1, 0]]", fillcolor="#e58139ff"] ;
292 -> 294 ;
295 [label="gini = 0.0\nsamples = 4\nvalue = [[4, 0]\n[4, 0]\n[4, 0]\n[0, 4]\n[4, 0]]", fillcolor="#e58139ff"] ;
291 -> 295 ;
296 [label="gini = 0.0\nsamples = 1\nvalue = [[1, 0]\n[0, 1]\n[1, 0]\n[1, 0]\n[1, 0]]", fillcolor="#e58139ff"] ;
290 -> 296 ;
297 [label="11 <= 0.026\ngini = 0.26\nsamples = 27\nvalue = [[26, 1]\n[15, 12]\n[17, 10]\n[24, 3]\n[26, 1]]", fillcolor="#e5813930"] ;
277 -> 297 ;
298 [label="2 <= 0.002\ngini = 0.25\nsamples = 26\nvalue = [[25, 1]\n[14, 12]\n[16, 10]\n[23, 3]\n[26, 0]]", fillcolor="#e5813938"] ;
297 -> 298 ;
299 [label="gini = 0.0\nsamples = 1\nvalue = [[1, 0]\n[1, 0]\n[1, 0]\n[0, 1]\n[1, 0]]", fillcolor="#e58139ff"] ;
298 -> 299 ;
300 [label="14 <= 0.117\ngini = 0.241\nsamples = 25\nvalue = [[24, 1]\n[13, 12]\n[15, 10]\n[23, 2]\n[25, 0]]", fillcolor="#e581393f"] ;
298 -> 300 ;
301 [label="1 <= 0.5\ngini = 0.225\nsamples = 11\nvalue = [[10, 1]\n[7, 4]\n[5, 6]\n[11, 0]\n[11, 0]]", fillcolor="#e581394c"] ;
300 -> 301 ;
302 [label="gini = 0.0\nsamples = 1\nvalue = [[1, 0]\n[0, 1]\n[1, 0]\n[1, 0]\n[1, 0]]", fillcolor="#e58139ff"] ;
301 -> 302 ;
303 [label="6 <= 0.25\ngini = 0.216\nsamples = 10\nvalue = [[9, 1]\n[7, 3]\n[4, 6]\n[10, 0]\n[10, 0]]", fillcolor="#e5813953"] ;
301 -> 303 ;
304 [label="3 <= 0.5\ngini = 0.178\nsamples = 6\nvalue = [[6, 0]\n[4, 2]\n[2, 4]\n[6, 0]\n[6, 0]]", fillcolor="#e5813971"] ;
303 -> 304 ;
305 [label="gini = 0.0\nsamples = 1\nvalue = [[1, 0]\n[0, 1]\n[1, 0]\n[1, 0]\n[1, 0]]", fillcolor="#e58139ff"] ;
304 -> 305 ;
306 [label="15 <= 0.958\ngini = 0.128\nsamples = 5\nvalue = [[5, 0]\n[4, 1]\n[1, 4]\n[5, 0]\n[5, 0]]", fillcolor="#e5813999"] ;
304 -> 306 ;
307 [label="gini = 0.0\nsamples = 1\nvalue = [[1, 0]\n[1, 0]\n[0, 1]\n[1, 0]\n[1, 0]]", fillcolor="#e58139ff"] ;
306 -> 307 ;
308 [label="gini = 0.15\nsamples = 4\nvalue = [[4, 0]\n[3, 1]\n[1, 3]\n[4, 0]\n[4, 0]]", fillcolor="#e5813987"] ;
306 -> 308 ;
309 [label="15 <= 0.958\ngini = 0.25\nsamples = 4\nvalue = [[3, 1]\n[3, 1]\n[2, 2]\n[4, 0]\n[4, 0]]", fillcolor="#e5813938"] ;
303 -> 309 ;
310 [label="gini = 0.267\nsamples = 3\nvalue = [[2, 1]\n[2, 1]\n[2, 1]\n[3, 0]\n[3, 0]]", fillcolor="#e581392a"] ;
309 -> 310 ;
311 [label="gini = 0.0\nsamples = 1\nvalue = [[1, 0]\n[1, 0]\n[0, 1]\n[1, 0]\n[1, 0]]", fillcolor="#e58139ff"] ;
309 -> 311 ;
312 [label="6 <= 0.25\ngini = 0.229\nsamples = 14\nvalue = [[14, 0]\n[6, 8]\n[10, 4]\n[12, 2]\n[14, 0]]", fillcolor="#e5813949"] ;
300 -> 312 ;
313 [label="14 <= 0.15\ngini = 0.244\nsamples = 6\nvalue = [[6, 0]\n[3, 3]\n[5, 1]\n[4, 2]\n[6, 0]]", fillcolor="#e581393c"] ;
312 -> 313 ;
314 [label="gini = 0.178\nsamples = 3\nvalue = [[3, 0]\n[2, 1]\n[3, 0]\n[1, 2]\n[3, 0]]", fillcolor="#e5813971"] ;
313 -> 314 ;
315 [label="15 <= 0.958\ngini = 0.178\nsamples = 3\nvalue = [[3, 0]\n[1, 2]\n[2, 1]\n[3, 0]\n[3, 0]]", fillcolor="#e5813971"] ;
313 -> 315 ;
316 [label="gini = 0.0\nsamples = 1\nvalue = [[1, 0]\n[0, 1]\n[1, 0]\n[1, 0]\n[1, 0]]", fillcolor="#e58139ff"] ;
315 -> 316 ;
317 [label="3 <= 0.5\ngini = 0.2\nsamples = 2\nvalue = [[2, 0]\n[1, 1]\n[1, 1]\n[2, 0]\n[2, 0]]", fillcolor="#e5813960"] ;
315 -> 317 ;
318 [label="gini = 0.0\nsamples = 1\nvalue = [[1, 0]\n[1, 0]\n[0, 1]\n[1, 0]\n[1, 0]]", fillcolor="#e58139ff"] ;
317 -> 318 ;
319 [label="gini = 0.0\nsamples = 1\nvalue = [[1, 0]\n[0, 1]\n[1, 0]\n[1, 0]\n[1, 0]]", fillcolor="#e58139ff"] ;
317 -> 319 ;
320 [label="14 <= 0.15\ngini = 0.188\nsamples = 8\nvalue = [[8, 0]\n[3, 5]\n[5, 3]\n[8, 0]\n[8, 0]]", fillcolor="#e581396a"] ;
312 -> 320 ;
321 [label="3 <= 0.5\ngini = 0.178\nsamples = 6\nvalue = [[6, 0]\n[2, 4]\n[4, 2]\n[6, 0]\n[6, 0]]", fillcolor="#e5813971"] ;
320 -> 321 ;
322 [label="gini = 0.2\nsamples = 2\nvalue = [[2, 0]\n[1, 1]\n[1, 1]\n[2, 0]\n[2, 0]]", fillcolor="#e5813960"] ;
321 -> 322 ;
323 [label="gini = 0.15\nsamples = 4\nvalue = [[4, 0]\n[1, 3]\n[3, 1]\n[4, 0]\n[4, 0]]", fillcolor="#e5813987"] ;
321 -> 323 ;
324 [label="3 <= 0.5\ngini = 0.2\nsamples = 2\nvalue = [[2, 0]\n[1, 1]\n[1, 1]\n[2, 0]\n[2, 0]]", fillcolor="#e5813960"] ;
320 -> 324 ;
325 [label="gini = 0.0\nsamples = 1\nvalue = [[1, 0]\n[0, 1]\n[1, 0]\n[1, 0]\n[1, 0]]", fillcolor="#e58139ff"] ;
324 -> 325 ;
326 [label="gini = 0.0\nsamples = 1\nvalue = [[1, 0]\n[1, 0]\n[0, 1]\n[1, 0]\n[1, 0]]", fillcolor="#e58139ff"] ;
324 -> 326 ;
327 [label="gini = 0.0\nsamples = 1\nvalue = [[1, 0]\n[1, 0]\n[1, 0]\n[1, 0]\n[0, 1]]", fillcolor="#e58139ff"] ;
297 -> 327 ;
328 [label="15 <= 0.958\ngini = 0.283\nsamples = 89\nvalue = [[88, 1]\n[56, 33]\n[59, 30]\n[79, 10]\n[74, 15]]", fillcolor="#e581391d"] ;
276 -> 328 ;
329 [label="3 <= 0.5\ngini = 0.285\nsamples = 60\nvalue = [[60, 0]\n[43, 17]\n[37, 23]\n[53, 7]\n[47, 13]]", fillcolor="#e581391c"] ;
328 -> 329 ;
330 [label="14 <= 0.05\ngini = 0.253\nsamples = 16\nvalue = [[16, 0]\n[8, 8]\n[11, 5]\n[15, 1]\n[14, 2]]", fillcolor="#e5813935"] ;
329 -> 330 ;
331 [label="6 <= 0.25\ngini = 0.2\nsamples = 4\nvalue = [[4, 0]\n[2, 2]\n[4, 0]\n[4, 0]\n[2, 2]]", fillcolor="#e5813960"] ;
330 -> 331 ;
332 [label="gini = 0.178\nsamples = 3\nvalue = [[3, 0]\n[1, 2]\n[3, 0]\n[3, 0]\n[2, 1]]", fillcolor="#e5813971"] ;
331 -> 332 ;
333 [label="gini = 0.0\nsamples = 1\nvalue = [[1, 0]\n[1, 0]\n[1, 0]\n[1, 0]\n[0, 1]]", fillcolor="#e58139ff"] ;
331 -> 333 ;
334 [label="11 <= 0.026\ngini = 0.228\nsamples = 12\nvalue = [[12, 0]\n[6, 6]\n[7, 5]\n[11, 1]\n[12, 0]]", fillcolor="#e5813949"] ;
330 -> 334 ;
335 [label="14 <= 0.117\ngini = 0.231\nsamples = 11\nvalue = [[11, 0]\n[6, 5]\n[6, 5]\n[10, 1]\n[11, 0]]", fillcolor="#e5813947"] ;
334 -> 335 ;
336 [label="14 <= 0.083\ngini = 0.229\nsamples = 7\nvalue = [[7, 0]\n[3, 4]\n[5, 2]\n[6, 1]\n[7, 0]]", fillcolor="#e5813949"] ;
335 -> 336 ;
337 [label="6 <= 0.25\ngini = 0.178\nsamples = 3\nvalue = [[3, 0]\n[1, 2]\n[2, 1]\n[3, 0]\n[3, 0]]", fillcolor="#e5813971"] ;
336 -> 337 ;
338 [label="gini = 0.2\nsamples = 2\nvalue = [[2, 0]\n[1, 1]\n[1, 1]\n[2, 0]\n[2, 0]]", fillcolor="#e5813960"] ;
337 -> 338 ;
339 [label="gini = 0.0\nsamples = 1\nvalue = [[1, 0]\n[0, 1]\n[1, 0]\n[1, 0]\n[1, 0]]", fillcolor="#e58139ff"] ;
337 -> 339 ;
340 [label="6 <= 0.25\ngini = 0.25\nsamples = 4\nvalue = [[4, 0]\n[2, 2]\n[3, 1]\n[3, 1]\n[4, 0]]", fillcolor="#e5813938"] ;
336 -> 340 ;
341 [label="gini = 0.2\nsamples = 2\nvalue = [[2, 0]\n[1, 1]\n[2, 0]\n[1, 1]\n[2, 0]]", fillcolor="#e5813960"] ;
340 -> 341 ;
342 [label="gini = 0.2\nsamples = 2\nvalue = [[2, 0]\n[1, 1]\n[1, 1]\n[2, 0]\n[2, 0]]", fillcolor="#e5813960"] ;
340 -> 342 ;
343 [label="14 <= 0.15\ngini = 0.15\nsamples = 4\nvalue = [[4, 0]\n[3, 1]\n[1, 3]\n[4, 0]\n[4, 0]]", fillcolor="#e5813987"] ;
335 -> 343 ;
344 [label="gini = 0.0\nsamples = 1\nvalue = [[1, 0]\n[1, 0]\n[0, 1]\n[1, 0]\n[1, 0]]", fillcolor="#e58139ff"] ;
343 -> 344 ;
345 [label="gini = 0.178\nsamples = 3\nvalue = [[3, 0]\n[2, 1]\n[1, 2]\n[3, 0]\n[3, 0]]", fillcolor="#e5813971"] ;
343 -> 345 ;
346 [label="gini = 0.0\nsamples = 1\nvalue = [[1, 0]\n[0, 1]\n[1, 0]\n[1, 0]\n[1, 0]]", fillcolor="#e58139ff"] ;
334 -> 346 ;
347 [label="10 <= 0.667\ngini = 0.284\nsamples = 44\nvalue = [[44, 0]\n[35, 9]\n[26, 18]\n[38, 6]\n[33, 11]]", fillcolor="#e581391d"] ;
329 -> 347 ;
348 [label="gini = 0.0\nsamples = 1\nvalue = [[1, 0]\n[1, 0]\n[1, 0]\n[0, 1]\n[1, 0]]", fillcolor="#e58139ff"] ;
347 -> 348 ;
349 [label="6 <= 0.25\ngini = 0.281\nsamples = 43\nvalue = [[43, 0]\n[34, 9]\n[25, 18]\n[38, 5]\n[32, 11]]", fillcolor="#e581391f"] ;
347 -> 349 ;
350 [label="13 <= 0.062\ngini = 0.278\nsamples = 32\nvalue = [[32, 0]\n[24, 8]\n[18, 14]\n[28, 4]\n[26, 6]]", fillcolor="#e5813921"] ;
349 -> 350 ;
351 [label="14 <= 0.117\ngini = 0.273\nsamples = 30\nvalue = [[30, 0]\n[23, 7]\n[16, 14]\n[26, 4]\n[25, 5]]", fillcolor="#e5813926"] ;
350 -> 351 ;
352 [label="1 <= 0.5\ngini = 0.275\nsamples = 25\nvalue = [[25, 0]\n[18, 7]\n[14, 11]\n[22, 3]\n[21, 4]]", fillcolor="#e5813924"] ;
351 -> 352 ;
353 [label="14 <= 0.083\ngini = 0.2\nsamples = 2\nvalue = [[2, 0]\n[2, 0]\n[1, 1]\n[2, 0]\n[1, 1]]", fillcolor="#e5813960"] ;
352 -> 353 ;
354 [label="gini = 0.0\nsamples = 1\nvalue = [[1, 0]\n[1, 0]\n[0, 1]\n[1, 0]\n[1, 0]]", fillcolor="#e58139ff"] ;
353 -> 354 ;
355 [label="gini = 0.0\nsamples = 1\nvalue = [[1, 0]\n[1, 0]\n[1, 0]\n[1, 0]\n[0, 1]]", fillcolor="#e58139ff"] ;
353 -> 355 ;
356 [label="11 <= 0.026\ngini = 0.274\nsamples = 23\nvalue = [[23, 0]\n[16, 7]\n[13, 10]\n[20, 3]\n[20, 3]]", fillcolor="#e5813925"] ;
352 -> 356 ;
357 [label="14 <= 0.083\ngini = 0.278\nsamples = 22\nvalue = [[22, 0]\n[15, 7]\n[13, 9]\n[19, 3]\n[19, 3]]", fillcolor="#e5813922"] ;
356 -> 357 ;
358 [label="14 <= 0.05\ngini = 0.286\nsamples = 18\nvalue = [[18, 0]\n[13, 5]\n[11, 7]\n[15, 3]\n[15, 3]]", fillcolor="#e581391b"] ;
357 -> 358 ;
359 [label="gini = 0.271\nsamples = 11\nvalue = [[11, 0]\n[8, 3]\n[6, 5]\n[9, 2]\n[10, 1]]", fillcolor="#e5813927"] ;
358 -> 359 ;
360 [label="gini = 0.294\nsamples = 7\nvalue = [[7, 0]\n[5, 2]\n[5, 2]\n[6, 1]\n[5, 2]]", fillcolor="#e5813915"] ;
358 -> 360 ;
361 [label="gini = 0.2\nsamples = 4\nvalue = [[4, 0]\n[2, 2]\n[2, 2]\n[4, 0]\n[4, 0]]", fillcolor="#e5813960"] ;
357 -> 361 ;
362 [label="gini = 0.0\nsamples = 1\nvalue = [[1, 0]\n[1, 0]\n[0, 1]\n[1, 0]\n[1, 0]]", fillcolor="#e58139ff"] ;
356 -> 362 ;
363 [label="14 <= 0.15\ngini = 0.224\nsamples = 5\nvalue = [[5, 0]\n[5, 0]\n[2, 3]\n[4, 1]\n[4, 1]]", fillcolor="#e581394c"] ;
351 -> 363 ;
364 [label="gini = 0.178\nsamples = 3\nvalue = [[3, 0]\n[3, 0]\n[1, 2]\n[3, 0]\n[2, 1]]", fillcolor="#e5813971"] ;
363 -> 364 ;
365 [label="gini = 0.2\nsamples = 2\nvalue = [[2, 0]\n[2, 0]\n[1, 1]\n[1, 1]\n[2, 0]]", fillcolor="#e5813960"] ;
363 -> 365 ;
366 [label="gini = 0.2\nsamples = 2\nvalue = [[2, 0]\n[1, 1]\n[2, 0]\n[2, 0]\n[1, 1]]", fillcolor="#e5813960"] ;
350 -> 366 ;
367 [label="1 <= 0.5\ngini = 0.258\nsamples = 11\nvalue = [[11, 0]\n[10, 1]\n[7, 4]\n[10, 1]\n[6, 5]]", fillcolor="#e5813932"] ;
349 -> 367 ;
368 [label="14 <= 0.117\ngini = 0.2\nsamples = 2\nvalue = [[2, 0]\n[2, 0]\n[1, 1]\n[1, 1]\n[2, 0]]", fillcolor="#e5813960"] ;
367 -> 368 ;
369 [label="gini = 0.0\nsamples = 1\nvalue = [[1, 0]\n[1, 0]\n[0, 1]\n[1, 0]\n[1, 0]]", fillcolor="#e58139ff"] ;
368 -> 369 ;
370 [label="gini = 0.0\nsamples = 1\nvalue = [[1, 0]\n[1, 0]\n[1, 0]\n[0, 1]\n[1, 0]]", fillcolor="#e58139ff"] ;
368 -> 370 ;
371 [label="13 <= 0.062\ngini = 0.227\nsamples = 9\nvalue = [[9, 0]\n[8, 1]\n[6, 3]\n[9, 0]\n[4, 5]]", fillcolor="#e581394a"] ;
367 -> 371 ;
372 [label="14 <= 0.117\ngini = 0.212\nsamples = 8\nvalue = [[8, 0]\n[7, 1]\n[6, 2]\n[8, 0]\n[3, 5]]", fillcolor="#e5813956"] ;
371 -> 372 ;
373 [label="14 <= 0.067\ngini = 0.128\nsamples = 5\nvalue = [[5, 0]\n[5, 0]\n[4, 1]\n[5, 0]\n[1, 4]]", fillcolor="#e5813999"] ;
372 -> 373 ;
374 [label="gini = 0.2\nsamples = 2\nvalue = [[2, 0]\n[2, 0]\n[1, 1]\n[2, 0]\n[1, 1]]", fillcolor="#e5813960"] ;
373 -> 374 ;
375 [label="gini = 0.0\nsamples = 3\nvalue = [[3, 0]\n[3, 0]\n[3, 0]\n[3, 0]\n[0, 3]]", fillcolor="#e58139ff"] ;
373 -> 375 ;
376 [label="14 <= 0.15\ngini = 0.267\nsamples = 3\nvalue = [[3, 0]\n[2, 1]\n[2, 1]\n[3, 0]\n[2, 1]]", fillcolor="#e581392a"] ;
372 -> 376 ;
377 [label="gini = 0.0\nsamples = 1\nvalue = [[1, 0]\n[0, 1]\n[1, 0]\n[1, 0]\n[1, 0]]", fillcolor="#e58139ff"] ;
376 -> 377 ;
378 [label="gini = 0.2\nsamples = 2\nvalue = [[2, 0]\n[2, 0]\n[1, 1]\n[2, 0]\n[1, 1]]", fillcolor="#e5813960"] ;
376 -> 378 ;
379 [label="gini = 0.0\nsamples = 1\nvalue = [[1, 0]\n[1, 0]\n[0, 1]\n[1, 0]\n[1, 0]]", fillcolor="#e58139ff"] ;
371 -> 379 ;
380 [label="10 <= 0.5\ngini = 0.248\nsamples = 29\nvalue = [[28, 1]\n[13, 16]\n[22, 7]\n[26, 3]\n[27, 2]]", fillcolor="#e5813939"] ;
328 -> 380 ;
381 [label="gini = 0.0\nsamples = 1\nvalue = [[1, 0]\n[1, 0]\n[0, 1]\n[1, 0]\n[1, 0]]", fillcolor="#e58139ff"] ;
380 -> 381 ;
382 [label="14 <= 0.083\ngini = 0.244\nsamples = 28\nvalue = [[27, 1]\n[12, 16]\n[22, 6]\n[25, 3]\n[26, 2]]", fillcolor="#e581393d"] ;
380 -> 382 ;
383 [label="14 <= 0.05\ngini = 0.238\nsamples = 15\nvalue = [[14, 1]\n[6, 9]\n[13, 2]\n[14, 1]\n[13, 2]]", fillcolor="#e5813941"] ;
382 -> 383 ;
384 [label="1 <= 0.5\ngini = 0.178\nsamples = 6\nvalue = [[6, 0]\n[2, 4]\n[4, 2]\n[6, 0]\n[6, 0]]", fillcolor="#e5813971"] ;
383 -> 384 ;
385 [label="gini = 0.178\nsamples = 3\nvalue = [[3, 0]\n[1, 2]\n[2, 1]\n[3, 0]\n[3, 0]]", fillcolor="#e5813971"] ;
384 -> 385 ;
386 [label="gini = 0.178\nsamples = 3\nvalue = [[3, 0]\n[1, 2]\n[2, 1]\n[3, 0]\n[3, 0]]", fillcolor="#e5813971"] ;
384 -> 386 ;
387 [label="11 <= 0.026\ngini = 0.247\nsamples = 9\nvalue = [[8, 1]\n[4, 5]\n[9, 0]\n[8, 1]\n[7, 2]]", fillcolor="#e581393a"] ;
383 -> 387 ;
388 [label="3 <= 0.5\ngini = 0.262\nsamples = 8\nvalue = [[7, 1]\n[4, 4]\n[8, 0]\n[7, 1]\n[6, 2]]", fillcolor="#e581392e"] ;
387 -> 388 ;
389 [label="gini = 0.178\nsamples = 3\nvalue = [[3, 0]\n[1, 2]\n[3, 0]\n[3, 0]\n[2, 1]]", fillcolor="#e5813971"] ;
388 -> 389 ;
390 [label="1 <= 0.5\ngini = 0.288\nsamples = 5\nvalue = [[4, 1]\n[3, 2]\n[5, 0]\n[4, 1]\n[4, 1]]", fillcolor="#e5813919"] ;
388 -> 390 ;
391 [label="gini = 0.0\nsamples = 1\nvalue = [[1, 0]\n[1, 0]\n[1, 0]\n[0, 1]\n[1, 0]]", fillcolor="#e58139ff"] ;
390 -> 391 ;
392 [label="gini = 0.25\nsamples = 4\nvalue = [[3, 1]\n[2, 2]\n[4, 0]\n[4, 0]\n[3, 1]]", fillcolor="#e5813938"] ;
390 -> 392 ;
393 [label="gini = 0.0\nsamples = 1\nvalue = [[1, 0]\n[0, 1]\n[1, 0]\n[1, 0]\n[1, 0]]", fillcolor="#e58139ff"] ;
387 -> 393 ;
394 [label="6 <= 0.25\ngini = 0.237\nsamples = 13\nvalue = [[13, 0]\n[6, 7]\n[9, 4]\n[11, 2]\n[13, 0]]", fillcolor="#e5813942"] ;
382 -> 394 ;
395 [label="1 <= 0.5\ngini = 0.257\nsamples = 9\nvalue = [[9, 0]\n[5, 4]\n[6, 3]\n[7, 2]\n[9, 0]]", fillcolor="#e5813932"] ;
394 -> 395 ;
396 [label="14 <= 0.117\ngini = 0.25\nsamples = 4\nvalue = [[4, 0]\n[3, 1]\n[2, 2]\n[3, 1]\n[4, 0]]", fillcolor="#e5813938"] ;
395 -> 396 ;
397 [label="gini = 0.0\nsamples = 1\nvalue = [[1, 0]\n[1, 0]\n[0, 1]\n[1, 0]\n[1, 0]]", fillcolor="#e58139ff"] ;
396 -> 397 ;
398 [label="14 <= 0.15\ngini = 0.267\nsamples = 3\nvalue = [[3, 0]\n[2, 1]\n[2, 1]\n[2, 1]\n[3, 0]]", fillcolor="#e581392a"] ;
396 -> 398 ;
399 [label="gini = 0.2\nsamples = 2\nvalue = [[2, 0]\n[1, 1]\n[2, 0]\n[1, 1]\n[2, 0]]", fillcolor="#e5813960"] ;
398 -> 399 ;
400 [label="gini = 0.0\nsamples = 1\nvalue = [[1, 0]\n[1, 0]\n[0, 1]\n[1, 0]\n[1, 0]]", fillcolor="#e58139ff"] ;
398 -> 400 ;
401 [label="14 <= 0.117\ngini = 0.224\nsamples = 5\nvalue = [[5, 0]\n[2, 3]\n[4, 1]\n[4, 1]\n[5, 0]]", fillcolor="#e581394c"] ;
395 -> 401 ;
402 [label="gini = 0.178\nsamples = 3\nvalue = [[3, 0]\n[1, 2]\n[3, 0]\n[2, 1]\n[3, 0]]", fillcolor="#e5813971"] ;
401 -> 402 ;
403 [label="14 <= 0.15\ngini = 0.2\nsamples = 2\nvalue = [[2, 0]\n[1, 1]\n[1, 1]\n[2, 0]\n[2, 0]]", fillcolor="#e5813960"] ;
401 -> 403 ;
404 [label="gini = 0.0\nsamples = 1\nvalue = [[1, 0]\n[1, 0]\n[0, 1]\n[1, 0]\n[1, 0]]", fillcolor="#e58139ff"] ;
403 -> 404 ;
405 [label="gini = 0.0\nsamples = 1\nvalue = [[1, 0]\n[0, 1]\n[1, 0]\n[1, 0]\n[1, 0]]", fillcolor="#e58139ff"] ;
403 -> 405 ;
406 [label="3 <= 0.5\ngini = 0.15\nsamples = 4\nvalue = [[4, 0]\n[1, 3]\n[3, 1]\n[4, 0]\n[4, 0]]", fillcolor="#e5813987"] ;
394 -> 406 ;
407 [label="gini = 0.2\nsamples = 2\nvalue = [[2, 0]\n[1, 1]\n[1, 1]\n[2, 0]\n[2, 0]]", fillcolor="#e5813960"] ;
406 -> 407 ;
408 [label="gini = 0.0\nsamples = 2\nvalue = [[2, 0]\n[0, 2]\n[2, 0]\n[2, 0]\n[2, 0]]", fillcolor="#e58139ff"] ;
406 -> 408 ;
409 [label="gini = 0.0\nsamples = 2\nvalue = [[2, 0]\n[2, 0]\n[0, 2]\n[2, 0]\n[2, 0]]", fillcolor="#e58139ff"] ;
275 -> 409 ;
410 [label="14 <= 0.083\ngini = 0.2\nsamples = 4\nvalue = [[2, 2]\n[2, 2]\n[4, 0]\n[4, 0]\n[4, 0]]", fillcolor="#e5813960"] ;
274 -> 410 ;
411 [label="gini = 0.0\nsamples = 2\nvalue = [[0, 2]\n[2, 0]\n[2, 0]\n[2, 0]\n[2, 0]]", fillcolor="#e58139ff"] ;
410 -> 411 ;
412 [label="gini = 0.0\nsamples = 2\nvalue = [[2, 0]\n[0, 2]\n[2, 0]\n[2, 0]\n[2, 0]]", fillcolor="#e58139ff"] ;
410 -> 412 ;
413 [label="14 <= 0.15\ngini = 0.264\nsamples = 92\nvalue = [[92, 0]\n[66, 26]\n[48, 44]\n[78, 14]\n[84, 8]]", fillcolor="#e581392c"] ;
273 -> 413 ;
414 [label="12 <= 0.001\ngini = 0.25\nsamples = 78\nvalue = [[78, 0]\n[59, 19]\n[36, 42]\n[67, 11]\n[72, 6]]", fillcolor="#e5813938"] ;
413 -> 414 ;
415 [label="5 <= 0.5\ngini = 0.247\nsamples = 76\nvalue = [[76, 0]\n[59, 17]\n[34, 42]\n[65, 11]\n[70, 6]]", fillcolor="#e581393a"] ;
414 -> 415 ;
416 [label="1 <= 0.5\ngini = 0.244\nsamples = 75\nvalue = [[75, 0]\n[58, 17]\n[33, 42]\n[64, 11]\n[70, 5]]", fillcolor="#e581393d"] ;
415 -> 416 ;
417 [label="8 <= 0.75\ngini = 0.256\nsamples = 5\nvalue = [[5, 0]\n[3, 2]\n[4, 1]\n[3, 2]\n[5, 0]]", fillcolor="#e5813933"] ;
416 -> 417 ;
418 [label="gini = 0.0\nsamples = 1\nvalue = [[1, 0]\n[1, 0]\n[0, 1]\n[1, 0]\n[1, 0]]", fillcolor="#e58139ff"] ;
417 -> 418 ;
419 [label="6 <= 0.25\ngini = 0.2\nsamples = 4\nvalue = [[4, 0]\n[2, 2]\n[4, 0]\n[2, 2]\n[4, 0]]", fillcolor="#e5813960"] ;
417 -> 419 ;
420 [label="15 <= 0.958\ngini = 0.178\nsamples = 3\nvalue = [[3, 0]\n[2, 1]\n[3, 0]\n[1, 2]\n[3, 0]]", fillcolor="#e5813971"] ;
419 -> 420 ;
421 [label="gini = 0.0\nsamples = 2\nvalue = [[2, 0]\n[2, 0]\n[2, 0]\n[0, 2]\n[2, 0]]", fillcolor="#e58139ff"] ;
420 -> 421 ;
422 [label="gini = 0.0\nsamples = 1\nvalue = [[1, 0]\n[0, 1]\n[1, 0]\n[1, 0]\n[1, 0]]", fillcolor="#e58139ff"] ;
420 -> 422 ;
423 [label="gini = 0.0\nsamples = 1\nvalue = [[1, 0]\n[0, 1]\n[1, 0]\n[1, 0]\n[1, 0]]", fillcolor="#e58139ff"] ;
419 -> 423 ;
424 [label="2 <= 0.006\ngini = 0.236\nsamples = 70\nvalue = [[70, 0]\n[55, 15]\n[29, 41]\n[61, 9]\n[65, 5]]", fillcolor="#e5813943"] ;
416 -> 424 ;
425 [label="14 <= 0.083\ngini = 0.213\nsamples = 33\nvalue = [[33, 0]\n[23, 10]\n[13, 20]\n[30, 3]\n[33, 0]]", fillcolor="#e5813955"] ;
424 -> 425 ;
426 [label="15 <= 0.958\ngini = 0.15\nsamples = 12\nvalue = [[12, 0]\n[12, 0]\n[3, 9]\n[9, 3]\n[12, 0]]", fillcolor="#e5813987"] ;
425 -> 426 ;
427 [label="6 <= 0.25\ngini = 0.119\nsamples = 11\nvalue = [[11, 0]\n[11, 0]\n[2, 9]\n[9, 2]\n[11, 0]]", fillcolor="#e58139a0"] ;
426 -> 427 ;
428 [label="gini = 0.0\nsamples = 5\nvalue = [[5, 0]\n[5, 0]\n[0, 5]\n[5, 0]\n[5, 0]]", fillcolor="#e58139ff"] ;
427 -> 428 ;
429 [label="gini = 0.178\nsamples = 6\nvalue = [[6, 0]\n[6, 0]\n[2, 4]\n[4, 2]\n[6, 0]]", fillcolor="#e5813971"] ;
427 -> 429 ;
430 [label="gini = 0.0\nsamples = 1\nvalue = [[1, 0]\n[1, 0]\n[1, 0]\n[0, 1]\n[1, 0]]", fillcolor="#e58139ff"] ;
426 -> 430 ;
431 [label="6 <= 0.25\ngini = 0.2\nsamples = 21\nvalue = [[21, 0]\n[11, 10]\n[10, 11]\n[21, 0]\n[21, 0]]", fillcolor="#e5813960"] ;
425 -> 431 ;
432 [label="11 <= 0.026\ngini = 0.138\nsamples = 9\nvalue = [[9, 0]\n[7, 2]\n[2, 7]\n[9, 0]\n[9, 0]]", fillcolor="#e5813991"] ;
431 -> 432 ;
433 [label="15 <= 0.958\ngini = 0.163\nsamples = 7\nvalue = [[7, 0]\n[5, 2]\n[2, 5]\n[7, 0]\n[7, 0]]", fillcolor="#e581397d"] ;
432 -> 433 ;
434 [label="2 <= 0.002\ngini = 0.192\nsamples = 5\nvalue = [[5, 0]\n[3, 2]\n[2, 3]\n[5, 0]\n[5, 0]]", fillcolor="#e5813966"] ;
433 -> 434 ;
435 [label="gini = 0.0\nsamples = 1\nvalue = [[1, 0]\n[1, 0]\n[0, 1]\n[1, 0]\n[1, 0]]", fillcolor="#e58139ff"] ;
434 -> 435 ;
436 [label="14 <= 0.117\ngini = 0.2\nsamples = 4\nvalue = [[4, 0]\n[2, 2]\n[2, 2]\n[4, 0]\n[4, 0]]", fillcolor="#e5813960"] ;
434 -> 436 ;
437 [label="gini = 0.2\nsamples = 2\nvalue = [[2, 0]\n[1, 1]\n[1, 1]\n[2, 0]\n[2, 0]]", fillcolor="#e5813960"] ;
436 -> 437 ;
438 [label="gini = 0.2\nsamples = 2\nvalue = [[2, 0]\n[1, 1]\n[1, 1]\n[2, 0]\n[2, 0]]", fillcolor="#e5813960"] ;
436 -> 438 ;
439 [label="gini = 0.0\nsamples = 2\nvalue = [[2, 0]\n[2, 0]\n[0, 2]\n[2, 0]\n[2, 0]]", fillcolor="#e58139ff"] ;
433 -> 439 ;
440 [label="gini = 0.0\nsamples = 2\nvalue = [[2, 0]\n[2, 0]\n[0, 2]\n[2, 0]\n[2, 0]]", fillcolor="#e58139ff"] ;
432 -> 440 ;
441 [label="14 <= 0.117\ngini = 0.178\nsamples = 12\nvalue = [[12, 0]\n[4, 8]\n[8, 4]\n[12, 0]\n[12, 0]]", fillcolor="#e5813971"] ;
431 -> 441 ;
442 [label="3 <= 0.5\ngini = 0.196\nsamples = 7\nvalue = [[7, 0]\n[4, 3]\n[3, 4]\n[7, 0]\n[7, 0]]", fillcolor="#e5813963"] ;
441 -> 442 ;
443 [label="gini = 0.178\nsamples = 6\nvalue = [[6, 0]\n[4, 2]\n[2, 4]\n[6, 0]\n[6, 0]]", fillcolor="#e5813971"] ;
442 -> 443 ;
444 [label="gini = 0.0\nsamples = 1\nvalue = [[1, 0]\n[0, 1]\n[1, 0]\n[1, 0]\n[1, 0]]", fillcolor="#e58139ff"] ;
442 -> 444 ;
445 [label="gini = 0.0\nsamples = 5\nvalue = [[5, 0]\n[0, 5]\n[5, 0]\n[5, 0]\n[5, 0]]", fillcolor="#e58139ff"] ;
441 -> 445 ;
446 [label="14 <= 0.083\ngini = 0.246\nsamples = 37\nvalue = [[37, 0]\n[32, 5]\n[16, 21]\n[31, 6]\n[32, 5]]", fillcolor="#e581393b"] ;
424 -> 446 ;
447 [label="11 <= 0.026\ngini = 0.274\nsamples = 18\nvalue = [[18, 0]\n[13, 5]\n[10, 8]\n[16, 2]\n[15, 3]]", fillcolor="#e5813925"] ;
446 -> 447 ;
448 [label="6 <= 0.25\ngini = 0.266\nsamples = 17\nvalue = [[17, 0]\n[12, 5]\n[9, 8]\n[15, 2]\n[15, 2]]", fillcolor="#e581392b"] ;
447 -> 448 ;
449 [label="3 <= 0.5\ngini = 0.27\nsamples = 13\nvalue = [[13, 0]\n[8, 5]\n[8, 5]\n[11, 2]\n[12, 1]]", fillcolor="#e5813928"] ;
448 -> 449 ;
450 [label="14 <= 0.05\ngini = 0.178\nsamples = 3\nvalue = [[3, 0]\n[2, 1]\n[1, 2]\n[3, 0]\n[3, 0]]", fillcolor="#e5813971"] ;
449 -> 450 ;
451 [label="gini = 0.0\nsamples = 1\nvalue = [[1, 0]\n[1, 0]\n[0, 1]\n[1, 0]\n[1, 0]]", fillcolor="#e58139ff"] ;
450 -> 451 ;
452 [label="gini = 0.2\nsamples = 2\nvalue = [[2, 0]\n[1, 1]\n[1, 1]\n[2, 0]\n[2, 0]]", fillcolor="#e5813960"] ;
450 -> 452 ;
453 [label="14 <= 0.05\ngini = 0.28\nsamples = 10\nvalue = [[10, 0]\n[6, 4]\n[7, 3]\n[8, 2]\n[9, 1]]", fillcolor="#e5813920"] ;
449 -> 453 ;
454 [label="15 <= 0.958\ngini = 0.267\nsamples = 6\nvalue = [[6, 0]\n[3, 3]\n[5, 1]\n[5, 1]\n[5, 1]]", fillcolor="#e581392a"] ;
453 -> 454 ;
455 [label="gini = 0.288\nsamples = 5\nvalue = [[5, 0]\n[3, 2]\n[4, 1]\n[4, 1]\n[4, 1]]", fillcolor="#e5813919"] ;
454 -> 455 ;
456 [label="gini = 0.0\nsamples = 1\nvalue = [[1, 0]\n[0, 1]\n[1, 0]\n[1, 0]\n[1, 0]]", fillcolor="#e58139ff"] ;
454 -> 456 ;
457 [label="15 <= 0.958\ngini = 0.25\nsamples = 4\nvalue = [[4, 0]\n[3, 1]\n[2, 2]\n[3, 1]\n[4, 0]]", fillcolor="#e5813938"] ;
453 -> 457 ;
458 [label="gini = 0.0\nsamples = 1\nvalue = [[1, 0]\n[0, 1]\n[1, 0]\n[1, 0]\n[1, 0]]", fillcolor="#e58139ff"] ;
457 -> 458 ;
459 [label="gini = 0.178\nsamples = 3\nvalue = [[3, 0]\n[3, 0]\n[1, 2]\n[2, 1]\n[3, 0]]", fillcolor="#e5813971"] ;
457 -> 459 ;
460 [label="3 <= 0.5\ngini = 0.15\nsamples = 4\nvalue = [[4, 0]\n[4, 0]\n[1, 3]\n[4, 0]\n[3, 1]]", fillcolor="#e5813987"] ;
448 -> 460 ;
461 [label="14 <= 0.05\ngini = 0.2\nsamples = 2\nvalue = [[2, 0]\n[2, 0]\n[1, 1]\n[2, 0]\n[1, 1]]", fillcolor="#e5813960"] ;
460 -> 461 ;
462 [label="gini = 0.0\nsamples = 1\nvalue = [[1, 0]\n[1, 0]\n[1, 0]\n[1, 0]\n[0, 1]]", fillcolor="#e58139ff"] ;
461 -> 462 ;
463 [label="gini = 0.0\nsamples = 1\nvalue = [[1, 0]\n[1, 0]\n[0, 1]\n[1, 0]\n[1, 0]]", fillcolor="#e58139ff"] ;
461 -> 463 ;
464 [label="gini = 0.0\nsamples = 2\nvalue = [[2, 0]\n[2, 0]\n[0, 2]\n[2, 0]\n[2, 0]]", fillcolor="#e58139ff"] ;
460 -> 464 ;
465 [label="gini = 0.0\nsamples = 1\nvalue = [[1, 0]\n[1, 0]\n[1, 0]\n[1, 0]\n[0, 1]]", fillcolor="#e58139ff"] ;
447 -> 465 ;
466 [label="8 <= 0.75\ngini = 0.191\nsamples = 19\nvalue = [[19, 0]\n[19, 0]\n[6, 13]\n[15, 4]\n[17, 2]]", fillcolor="#e5813967"] ;
446 -> 466 ;
467 [label="gini = 0.0\nsamples = 2\nvalue = [[2, 0]\n[2, 0]\n[0, 2]\n[2, 0]\n[2, 0]]", fillcolor="#e58139ff"] ;
466 -> 467 ;
468 [label="6 <= 0.25\ngini = 0.205\nsamples = 17\nvalue = [[17, 0]\n[17, 0]\n[6, 11]\n[13, 4]\n[15, 2]]", fillcolor="#e581395c"] ;
466 -> 468 ;
469 [label="14 <= 0.117\ngini = 0.238\nsamples = 11\nvalue = [[11, 0]\n[11, 0]\n[5, 6]\n[8, 3]\n[9, 2]]", fillcolor="#e5813941"] ;
468 -> 469 ;
470 [label="3 <= 0.5\ngini = 0.178\nsamples = 3\nvalue = [[3, 0]\n[3, 0]\n[2, 1]\n[1, 2]\n[3, 0]]", fillcolor="#e5813971"] ;
469 -> 470 ;
471 [label="gini = 0.0\nsamples = 1\nvalue = [[1, 0]\n[1, 0]\n[1, 0]\n[0, 1]\n[1, 0]]", fillcolor="#e58139ff"] ;
470 -> 471 ;
472 [label="gini = 0.2\nsamples = 2\nvalue = [[2, 0]\n[2, 0]\n[1, 1]\n[1, 1]\n[2, 0]]", fillcolor="#e5813960"] ;
470 -> 472 ;
473 [label="15 <= 0.958\ngini = 0.212\nsamples = 8\nvalue = [[8, 0]\n[8, 0]\n[3, 5]\n[7, 1]\n[6, 2]]", fillcolor="#e5813956"] ;
469 -> 473 ;
474 [label="3 <= 0.5\ngini = 0.229\nsamples = 7\nvalue = [[7, 0]\n[7, 0]\n[3, 4]\n[6, 1]\n[5, 2]]", fillcolor="#e5813949"] ;
473 -> 474 ;
475 [label="gini = 0.178\nsamples = 3\nvalue = [[3, 0]\n[3, 0]\n[1, 2]\n[3, 0]\n[2, 1]]", fillcolor="#e5813971"] ;
474 -> 475 ;
476 [label="gini = 0.25\nsamples = 4\nvalue = [[4, 0]\n[4, 0]\n[2, 2]\n[3, 1]\n[3, 1]]", fillcolor="#e5813938"] ;
474 -> 476 ;
477 [label="gini = 0.0\nsamples = 1\nvalue = [[1, 0]\n[1, 0]\n[0, 1]\n[1, 0]\n[1, 0]]", fillcolor="#e58139ff"] ;
473 -> 477 ;
478 [label="14 <= 0.117\ngini = 0.111\nsamples = 6\nvalue = [[6, 0]\n[6, 0]\n[1, 5]\n[5, 1]\n[6, 0]]", fillcolor="#e58139a6"] ;
468 -> 478 ;
479 [label="gini = 0.0\nsamples = 3\nvalue = [[3, 0]\n[3, 0]\n[0, 3]\n[3, 0]\n[3, 0]]", fillcolor="#e58139ff"] ;
478 -> 479 ;
480 [label="gini = 0.178\nsamples = 3\nvalue = [[3, 0]\n[3, 0]\n[1, 2]\n[2, 1]\n[3, 0]]", fillcolor="#e5813971"] ;
478 -> 480 ;
481 [label="gini = 0.0\nsamples = 1\nvalue = [[1, 0]\n[1, 0]\n[1, 0]\n[1, 0]\n[0, 1]]", fillcolor="#e58139ff"] ;
415 -> 481 ;
482 [label="gini = 0.0\nsamples = 2\nvalue = [[2, 0]\n[0, 2]\n[2, 0]\n[2, 0]\n[2, 0]]", fillcolor="#e58139ff"] ;
414 -> 482 ;
483 [label="6 <= 0.25\ngini = 0.265\nsamples = 14\nvalue = [[14, 0]\n[7, 7]\n[12, 2]\n[11, 3]\n[12, 2]]", fillcolor="#e581392c"] ;
413 -> 483 ;
484 [label="15 <= 0.958\ngini = 0.229\nsamples = 7\nvalue = [[7, 0]\n[3, 4]\n[6, 1]\n[7, 0]\n[5, 2]]", fillcolor="#e5813949"] ;
483 -> 484 ;
485 [label="gini = 0.15\nsamples = 4\nvalue = [[4, 0]\n[1, 3]\n[4, 0]\n[4, 0]\n[3, 1]]", fillcolor="#e5813987"] ;
484 -> 485 ;
486 [label="gini = 0.267\nsamples = 3\nvalue = [[3, 0]\n[2, 1]\n[2, 1]\n[3, 0]\n[2, 1]]", fillcolor="#e581392a"] ;
484 -> 486 ;
487 [label="11 <= 0.026\ngini = 0.245\nsamples = 7\nvalue = [[7, 0]\n[4, 3]\n[6, 1]\n[4, 3]\n[7, 0]]", fillcolor="#e581393c"] ;
483 -> 487 ;
488 [label="3 <= 0.5\ngini = 0.244\nsamples = 6\nvalue = [[6, 0]\n[4, 2]\n[5, 1]\n[3, 3]\n[6, 0]]", fillcolor="#e581393c"] ;
487 -> 488 ;
489 [label="gini = 0.178\nsamples = 3\nvalue = [[3, 0]\n[3, 0]\n[2, 1]\n[1, 2]\n[3, 0]]", fillcolor="#e5813971"] ;
488 -> 489 ;
490 [label="2 <= 0.006\ngini = 0.178\nsamples = 3\nvalue = [[3, 0]\n[1, 2]\n[3, 0]\n[2, 1]\n[3, 0]]", fillcolor="#e5813971"] ;
488 -> 490 ;
491 [label="gini = 0.2\nsamples = 2\nvalue = [[2, 0]\n[1, 1]\n[2, 0]\n[1, 1]\n[2, 0]]", fillcolor="#e5813960"] ;
490 -> 491 ;
492 [label="gini = 0.0\nsamples = 1\nvalue = [[1, 0]\n[0, 1]\n[1, 0]\n[1, 0]\n[1, 0]]", fillcolor="#e58139ff"] ;
490 -> 492 ;
493 [label="gini = 0.0\nsamples = 1\nvalue = [[1, 0]\n[0, 1]\n[1, 0]\n[1, 0]\n[1, 0]]", fillcolor="#e58139ff"] ;
487 -> 493 ;
494 [label="14 <= 0.15\ngini = 0.265\nsamples = 14\nvalue = [[14, 0]\n[12, 2]\n[12, 2]\n[7, 7]\n[11, 3]]", fillcolor="#e581392c"] ;
272 -> 494 ;
495 [label="12 <= 0.075\ngini = 0.251\nsamples = 13\nvalue = [[13, 0]\n[12, 1]\n[11, 2]\n[6, 7]\n[10, 3]]", fillcolor="#e5813937"] ;
494 -> 495 ;
496 [label="2 <= 0.002\ngini = 0.218\nsamples = 11\nvalue = [[11, 0]\n[10, 1]\n[10, 1]\n[4, 7]\n[9, 2]]", fillcolor="#e5813951"] ;
495 -> 496 ;
497 [label="gini = 0.0\nsamples = 1\nvalue = [[1, 0]\n[1, 0]\n[1, 0]\n[1, 0]\n[0, 1]]", fillcolor="#e58139ff"] ;
496 -> 497 ;
498 [label="8 <= 0.5\ngini = 0.192\nsamples = 10\nvalue = [[10, 0]\n[9, 1]\n[9, 1]\n[3, 7]\n[9, 1]]", fillcolor="#e5813966"] ;
496 -> 498 ;
499 [label="11 <= 0.026\ngini = 0.111\nsamples = 6\nvalue = [[6, 0]\n[6, 0]\n[5, 1]\n[1, 5]\n[6, 0]]", fillcolor="#e58139a6"] ;
498 -> 499 ;
500 [label="gini = 0.0\nsamples = 4\nvalue = [[4, 0]\n[4, 0]\n[4, 0]\n[0, 4]\n[4, 0]]", fillcolor="#e58139ff"] ;
499 -> 500 ;
501 [label="14 <= 0.083\ngini = 0.2\nsamples = 2\nvalue = [[2, 0]\n[2, 0]\n[1, 1]\n[1, 1]\n[2, 0]]", fillcolor="#e5813960"] ;
499 -> 501 ;
502 [label="gini = 0.0\nsamples = 1\nvalue = [[1, 0]\n[1, 0]\n[0, 1]\n[1, 0]\n[1, 0]]", fillcolor="#e58139ff"] ;
501 -> 502 ;
503 [label="gini = 0.0\nsamples = 1\nvalue = [[1, 0]\n[1, 0]\n[1, 0]\n[0, 1]\n[1, 0]]", fillcolor="#e58139ff"] ;
501 -> 503 ;
504 [label="12 <= 0.047\ngini = 0.25\nsamples = 4\nvalue = [[4, 0]\n[3, 1]\n[4, 0]\n[2, 2]\n[3, 1]]", fillcolor="#e5813938"] ;
498 -> 504 ;
505 [label="3 <= 0.5\ngini = 0.178\nsamples = 3\nvalue = [[3, 0]\n[3, 0]\n[3, 0]\n[1, 2]\n[2, 1]]", fillcolor="#e5813971"] ;
504 -> 505 ;
506 [label="gini = 0.0\nsamples = 1\nvalue = [[1, 0]\n[1, 0]\n[1, 0]\n[1, 0]\n[0, 1]]", fillcolor="#e58139ff"] ;
505 -> 506 ;
507 [label="gini = 0.0\nsamples = 2\nvalue = [[2, 0]\n[2, 0]\n[2, 0]\n[0, 2]\n[2, 0]]", fillcolor="#e58139ff"] ;
505 -> 507 ;
508 [label="gini = 0.0\nsamples = 1\nvalue = [[1, 0]\n[0, 1]\n[1, 0]\n[1, 0]\n[1, 0]]", fillcolor="#e58139ff"] ;
504 -> 508 ;
509 [label="14 <= 0.117\ngini = 0.2\nsamples = 2\nvalue = [[2, 0]\n[2, 0]\n[1, 1]\n[2, 0]\n[1, 1]]", fillcolor="#e5813960"] ;
495 -> 509 ;
510 [label="gini = 0.0\nsamples = 1\nvalue = [[1, 0]\n[1, 0]\n[1, 0]\n[1, 0]\n[0, 1]]", fillcolor="#e58139ff"] ;
509 -> 510 ;
511 [label="gini = 0.0\nsamples = 1\nvalue = [[1, 0]\n[1, 0]\n[0, 1]\n[1, 0]\n[1, 0]]", fillcolor="#e58139ff"] ;
509 -> 511 ;
512 [label="gini = 0.0\nsamples = 1\nvalue = [[1, 0]\n[0, 1]\n[1, 0]\n[1, 0]\n[1, 0]]", fillcolor="#e58139ff"] ;
494 -> 512 ;
513 [label="7 <= 0.75\ngini = 0.277\nsamples = 215\nvalue = [[214, 1]\n[165, 50]\n[126, 89]\n[155, 60]\n[200, 15]]", fillcolor="#e5813922"] ;
189 -> 513 ;
514 [label="5 <= 0.5\ngini = 0.229\nsamples = 42\nvalue = [[42, 0]\n[38, 4]\n[26, 16]\n[20, 22]\n[42, 0]]", fillcolor="#e5813949"] ;
513 -> 514 ;
515 [label="14 <= 0.05\ngini = 0.219\nsamples = 39\nvalue = [[39, 0]\n[36, 3]\n[25, 14]\n[17, 22]\n[39, 0]]", fillcolor="#e5813951"] ;
514 -> 515 ;
516 [label="6 <= 0.25\ngini = 0.257\nsamples = 14\nvalue = [[14, 0]\n[11, 3]\n[8, 6]\n[9, 5]\n[14, 0]]", fillcolor="#e5813932"] ;
515 -> 516 ;
517 [label="3 <= 0.5\ngini = 0.237\nsamples = 9\nvalue = [[9, 0]\n[7, 2]\n[4, 5]\n[7, 2]\n[9, 0]]", fillcolor="#e5813942"] ;
516 -> 517 ;
518 [label="gini = 0.0\nsamples = 2\nvalue = [[2, 0]\n[2, 0]\n[2, 0]\n[0, 2]\n[2, 0]]", fillcolor="#e58139ff"] ;
517 -> 518 ;
519 [label="2 <= 0.006\ngini = 0.163\nsamples = 7\nvalue = [[7, 0]\n[5, 2]\n[2, 5]\n[7, 0]\n[7, 0]]", fillcolor="#e581397d"] ;
517 -> 519 ;
520 [label="gini = 0.0\nsamples = 3\nvalue = [[3, 0]\n[3, 0]\n[0, 3]\n[3, 0]\n[3, 0]]", fillcolor="#e58139ff"] ;
519 -> 520 ;
521 [label="gini = 0.2\nsamples = 4\nvalue = [[4, 0]\n[2, 2]\n[2, 2]\n[4, 0]\n[4, 0]]", fillcolor="#e5813960"] ;
519 -> 521 ;
522 [label="3 <= 0.5\ngini = 0.224\nsamples = 5\nvalue = [[5, 0]\n[4, 1]\n[4, 1]\n[2, 3]\n[5, 0]]", fillcolor="#e581394c"] ;
516 -> 522 ;
523 [label="gini = 0.0\nsamples = 1\nvalue = [[1, 0]\n[1, 0]\n[0, 1]\n[1, 0]\n[1, 0]]", fillcolor="#e58139ff"] ;
522 -> 523 ;
524 [label="2 <= 0.006\ngini = 0.15\nsamples = 4\nvalue = [[4, 0]\n[3, 1]\n[4, 0]\n[1, 3]\n[4, 0]]", fillcolor="#e5813987"] ;
522 -> 524 ;
525 [label="gini = 0.2\nsamples = 2\nvalue = [[2, 0]\n[1, 1]\n[2, 0]\n[1, 1]\n[2, 0]]", fillcolor="#e5813960"] ;
524 -> 525 ;
526 [label="gini = 0.0\nsamples = 2\nvalue = [[2, 0]\n[2, 0]\n[2, 0]\n[0, 2]\n[2, 0]]", fillcolor="#e58139ff"] ;
524 -> 526 ;
527 [label="8 <= 0.75\ngini = 0.174\nsamples = 25\nvalue = [[25, 0]\n[25, 0]\n[17, 8]\n[8, 17]\n[25, 0]]", fillcolor="#e5813974"] ;
515 -> 527 ;
528 [label="14 <= 0.083\ngini = 0.159\nsamples = 22\nvalue = [[22, 0]\n[22, 0]\n[16, 6]\n[6, 16]\n[22, 0]]", fillcolor="#e5813981"] ;
527 -> 528 ;
529 [label="gini = 0.0\nsamples = 8\nvalue = [[8, 0]\n[8, 0]\n[8, 0]\n[0, 8]\n[8, 0]]", fillcolor="#e58139ff"] ;
528 -> 529 ;
530 [label="2 <= 0.006\ngini = 0.196\nsamples = 14\nvalue = [[14, 0]\n[14, 0]\n[8, 6]\n[6, 8]\n[14, 0]]", fillcolor="#e5813963"] ;
528 -> 530 ;
531 [label="14 <= 0.117\ngini = 0.163\nsamples = 7\nvalue = [[7, 0]\n[7, 0]\n[5, 2]\n[2, 5]\n[7, 0]]", fillcolor="#e581397d"] ;
530 -> 531 ;
532 [label="6 <= 0.25\ngini = 0.178\nsamples = 3\nvalue = [[3, 0]\n[3, 0]\n[2, 1]\n[1, 2]\n[3, 0]]", fillcolor="#e5813971"] ;
531 -> 532 ;
533 [label="gini = 0.0\nsamples = 1\nvalue = [[1, 0]\n[1, 0]\n[1, 0]\n[0, 1]\n[1, 0]]", fillcolor="#e58139ff"] ;
532 -> 533 ;
534 [label="gini = 0.2\nsamples = 2\nvalue = [[2, 0]\n[2, 0]\n[1, 1]\n[1, 1]\n[2, 0]]", fillcolor="#e5813960"] ;
532 -> 534 ;
535 [label="14 <= 0.15\ngini = 0.15\nsamples = 4\nvalue = [[4, 0]\n[4, 0]\n[3, 1]\n[1, 3]\n[4, 0]]", fillcolor="#e5813987"] ;
531 -> 535 ;
536 [label="gini = 0.0\nsamples = 1\nvalue = [[1, 0]\n[1, 0]\n[1, 0]\n[0, 1]\n[1, 0]]", fillcolor="#e58139ff"] ;
535 -> 536 ;
537 [label="gini = 0.178\nsamples = 3\nvalue = [[3, 0]\n[3, 0]\n[2, 1]\n[1, 2]\n[3, 0]]", fillcolor="#e5813971"] ;
535 -> 537 ;
538 [label="14 <= 0.117\ngini = 0.196\nsamples = 7\nvalue = [[7, 0]\n[7, 0]\n[3, 4]\n[4, 3]\n[7, 0]]", fillcolor="#e5813963"] ;
530 -> 538 ;
539 [label="3 <= 0.5\ngini = 0.178\nsamples = 3\nvalue = [[3, 0]\n[3, 0]\n[1, 2]\n[2, 1]\n[3, 0]]", fillcolor="#e5813971"] ;
538 -> 539 ;
540 [label="gini = 0.2\nsamples = 2\nvalue = [[2, 0]\n[2, 0]\n[1, 1]\n[1, 1]\n[2, 0]]", fillcolor="#e5813960"] ;
539 -> 540 ;
541 [label="gini = 0.0\nsamples = 1\nvalue = [[1, 0]\n[1, 0]\n[0, 1]\n[1, 0]\n[1, 0]]", fillcolor="#e58139ff"] ;
539 -> 541 ;
542 [label="3 <= 0.5\ngini = 0.2\nsamples = 4\nvalue = [[4, 0]\n[4, 0]\n[2, 2]\n[2, 2]\n[4, 0]]", fillcolor="#e5813960"] ;
538 -> 542 ;
543 [label="gini = 0.2\nsamples = 2\nvalue = [[2, 0]\n[2, 0]\n[1, 1]\n[1, 1]\n[2, 0]]", fillcolor="#e5813960"] ;
542 -> 543 ;
544 [label="gini = 0.2\nsamples = 2\nvalue = [[2, 0]\n[2, 0]\n[1, 1]\n[1, 1]\n[2, 0]]", fillcolor="#e5813960"] ;
542 -> 544 ;
545 [label="2 <= 0.006\ngini = 0.178\nsamples = 3\nvalue = [[3, 0]\n[3, 0]\n[1, 2]\n[2, 1]\n[3, 0]]", fillcolor="#e5813971"] ;
527 -> 545 ;
546 [label="gini = 0.0\nsamples = 2\nvalue = [[2, 0]\n[2, 0]\n[0, 2]\n[2, 0]\n[2, 0]]", fillcolor="#e58139ff"] ;
545 -> 546 ;
547 [label="gini = 0.0\nsamples = 1\nvalue = [[1, 0]\n[1, 0]\n[1, 0]\n[0, 1]\n[1, 0]]", fillcolor="#e58139ff"] ;
545 -> 547 ;
548 [label="14 <= 0.117\ngini = 0.178\nsamples = 3\nvalue = [[3, 0]\n[2, 1]\n[1, 2]\n[3, 0]\n[3, 0]]", fillcolor="#e5813971"] ;
514 -> 548 ;
549 [label="gini = 0.0\nsamples = 2\nvalue = [[2, 0]\n[2, 0]\n[0, 2]\n[2, 0]\n[2, 0]]", fillcolor="#e58139ff"] ;
548 -> 549 ;
550 [label="gini = 0.0\nsamples = 1\nvalue = [[1, 0]\n[0, 1]\n[1, 0]\n[1, 0]\n[1, 0]]", fillcolor="#e58139ff"] ;
548 -> 550 ;
551 [label="15 <= 0.69\ngini = 0.278\nsamples = 173\nvalue = [[172, 1]\n[127, 46]\n[100, 73]\n[135, 38]\n[158, 15]]", fillcolor="#e5813921"] ;
513 -> 551 ;
552 [label="6 <= 0.25\ngini = 0.265\nsamples = 13\nvalue = [[13, 0]\n[7, 6]\n[11, 2]\n[12, 1]\n[9, 4]]", fillcolor="#e581392c"] ;
551 -> 552 ;
553 [label="15 <= 0.232\ngini = 0.225\nsamples = 8\nvalue = [[8, 0]\n[3, 5]\n[7, 1]\n[7, 1]\n[7, 1]]", fillcolor="#e581394c"] ;
552 -> 553 ;
554 [label="14 <= 0.15\ngini = 0.18\nsamples = 7\nvalue = [[7, 0]\n[2, 5]\n[7, 0]\n[6, 1]\n[6, 1]]", fillcolor="#e5813970"] ;
553 -> 554 ;
555 [label="11 <= 0.026\ngini = 0.111\nsamples = 6\nvalue = [[6, 0]\n[1, 5]\n[6, 0]\n[6, 0]\n[5, 1]]", fillcolor="#e58139a6"] ;
554 -> 555 ;
556 [label="gini = 0.0\nsamples = 5\nvalue = [[5, 0]\n[0, 5]\n[5, 0]\n[5, 0]\n[5, 0]]", fillcolor="#e58139ff"] ;
555 -> 556 ;
557 [label="gini = 0.0\nsamples = 1\nvalue = [[1, 0]\n[1, 0]\n[1, 0]\n[1, 0]\n[0, 1]]", fillcolor="#e58139ff"] ;
555 -> 557 ;
558 [label="gini = 0.0\nsamples = 1\nvalue = [[1, 0]\n[1, 0]\n[1, 0]\n[0, 1]\n[1, 0]]", fillcolor="#e58139ff"] ;
554 -> 558 ;
559 [label="gini = 0.0\nsamples = 1\nvalue = [[1, 0]\n[1, 0]\n[0, 1]\n[1, 0]\n[1, 0]]", fillcolor="#e58139ff"] ;
553 -> 559 ;
560 [label="5 <= 0.5\ngini = 0.224\nsamples = 5\nvalue = [[5, 0]\n[4, 1]\n[4, 1]\n[5, 0]\n[2, 3]]", fillcolor="#e581394c"] ;
552 -> 560 ;
561 [label="14 <= 0.067\ngini = 0.15\nsamples = 4\nvalue = [[4, 0]\n[3, 1]\n[4, 0]\n[4, 0]\n[1, 3]]", fillcolor="#e5813987"] ;
560 -> 561 ;
562 [label="gini = 0.0\nsamples = 2\nvalue = [[2, 0]\n[2, 0]\n[2, 0]\n[2, 0]\n[0, 2]]", fillcolor="#e58139ff"] ;
561 -> 562 ;
563 [label="8 <= 0.5\ngini = 0.2\nsamples = 2\nvalue = [[2, 0]\n[1, 1]\n[2, 0]\n[2, 0]\n[1, 1]]", fillcolor="#e5813960"] ;
561 -> 563 ;
564 [label="gini = 0.0\nsamples = 1\nvalue = [[1, 0]\n[1, 0]\n[1, 0]\n[1, 0]\n[0, 1]]", fillcolor="#e58139ff"] ;
563 -> 564 ;
565 [label="gini = 0.0\nsamples = 1\nvalue = [[1, 0]\n[0, 1]\n[1, 0]\n[1, 0]\n[1, 0]]", fillcolor="#e58139ff"] ;
563 -> 565 ;
566 [label="gini = 0.0\nsamples = 1\nvalue = [[1, 0]\n[1, 0]\n[0, 1]\n[1, 0]\n[1, 0]]", fillcolor="#e58139ff"] ;
560 -> 566 ;
567 [label="14 <= 0.15\ngini = 0.273\nsamples = 160\nvalue = [[159, 1]\n[120, 40]\n[89, 71]\n[123, 37]\n[149, 11]]", fillcolor="#e5813926"] ;
551 -> 567 ;
568 [label="13 <= 0.188\ngini = 0.27\nsamples = 139\nvalue = [[138, 1]\n[107, 32]\n[74, 65]\n[109, 30]\n[128, 11]]", fillcolor="#e5813928"] ;
567 -> 568 ;
569 [label="14 <= 0.117\ngini = 0.27\nsamples = 138\nvalue = [[137, 1]\n[106, 32]\n[73, 65]\n[109, 29]\n[127, 11]]", fillcolor="#e5813928"] ;
568 -> 569 ;
570 [label="8 <= 0.75\ngini = 0.277\nsamples = 112\nvalue = [[111, 1]\n[86, 26]\n[63, 49]\n[86, 26]\n[102, 10]]", fillcolor="#e5813922"] ;
569 -> 570 ;
571 [label="gini = 0.0\nsamples = 2\nvalue = [[2, 0]\n[2, 0]\n[0, 2]\n[2, 0]\n[2, 0]]", fillcolor="#e58139ff"] ;
570 -> 571 ;
572 [label="1 <= 0.5\ngini = 0.279\nsamples = 110\nvalue = [[109, 1]\n[84, 26]\n[63, 47]\n[84, 26]\n[100, 10]]", fillcolor="#e5813921"] ;
570 -> 572 ;
573 [label="6 <= 0.25\ngini = 0.178\nsamples = 3\nvalue = [[3, 0]\n[2, 1]\n[3, 0]\n[1, 2]\n[3, 0]]", fillcolor="#e5813971"] ;
572 -> 573 ;
574 [label="gini = 0.0\nsamples = 2\nvalue = [[2, 0]\n[2, 0]\n[2, 0]\n[0, 2]\n[2, 0]]", fillcolor="#e58139ff"] ;
573 -> 574 ;
575 [label="gini = 0.0\nsamples = 1\nvalue = [[1, 0]\n[0, 1]\n[1, 0]\n[1, 0]\n[1, 0]]", fillcolor="#e58139ff"] ;
573 -> 575 ;
576 [label="14 <= 0.083\ngini = 0.277\nsamples = 107\nvalue = [[106, 1]\n[82, 25]\n[60, 47]\n[83, 24]\n[97, 10]]", fillcolor="#e5813922"] ;
572 -> 576 ;
577 [label="2 <= 0.006\ngini = 0.276\nsamples = 71\nvalue = [[70, 1]\n[56, 15]\n[38, 33]\n[58, 13]\n[62, 9]]", fillcolor="#e5813923"] ;
576 -> 577 ;
578 [label="3 <= 0.5\ngini = 0.296\nsamples = 9\nvalue = [[8, 1]\n[6, 3]\n[8, 1]\n[6, 3]\n[8, 1]]", fillcolor="#e5813913"] ;
577 -> 578 ;
579 [label="12 <= 0.05\ngini = 0.275\nsamples = 8\nvalue = [[7, 1]\n[5, 3]\n[7, 1]\n[5, 3]\n[8, 0]]", fillcolor="#e5813924"] ;
578 -> 579 ;
580 [label="14 <= 0.05\ngini = 0.245\nsamples = 7\nvalue = [[6, 1]\n[4, 3]\n[7, 0]\n[4, 3]\n[7, 0]]", fillcolor="#e581393c"] ;
579 -> 580 ;
581 [label="gini = 0.178\nsamples = 3\nvalue = [[3, 0]\n[2, 1]\n[3, 0]\n[1, 2]\n[3, 0]]", fillcolor="#e5813971"] ;
580 -> 581 ;
582 [label="gini = 0.25\nsamples = 4\nvalue = [[3, 1]\n[2, 2]\n[4, 0]\n[3, 1]\n[4, 0]]", fillcolor="#e5813938"] ;
580 -> 582 ;
583 [label="gini = 0.0\nsamples = 1\nvalue = [[1, 0]\n[1, 0]\n[0, 1]\n[1, 0]\n[1, 0]]", fillcolor="#e58139ff"] ;
579 -> 583 ;
584 [label="gini = 0.0\nsamples = 1\nvalue = [[1, 0]\n[1, 0]\n[1, 0]\n[1, 0]\n[0, 1]]", fillcolor="#e58139ff"] ;
578 -> 584 ;
585 [label="15 <= 0.958\ngini = 0.261\nsamples = 62\nvalue = [[62, 0]\n[50, 12]\n[30, 32]\n[52, 10]\n[54, 8]]", fillcolor="#e581392f"] ;
577 -> 585 ;
586 [label="12 <= 0.035\ngini = 0.269\nsamples = 52\nvalue = [[52, 0]\n[40, 12]\n[27, 25]\n[43, 9]\n[46, 6]]", fillcolor="#e5813929"] ;
585 -> 586 ;
587 [label="6 <= 0.25\ngini = 0.263\nsamples = 50\nvalue = [[50, 0]\n[38, 12]\n[25, 25]\n[42, 8]\n[45, 5]]", fillcolor="#e581392e"] ;
586 -> 587 ;
588 [label="14 <= 0.05\ngini = 0.284\nsamples = 15\nvalue = [[15, 0]\n[11, 4]\n[9, 6]\n[13, 2]\n[12, 3]]", fillcolor="#e581391c"] ;
587 -> 588 ;
589 [label="5 <= 0.5\ngini = 0.298\nsamples = 11\nvalue = [[11, 0]\n[8, 3]\n[8, 3]\n[9, 2]\n[8, 3]]", fillcolor="#e5813912"] ;
588 -> 589 ;
590 [label="gini = 0.296\nsamples = 10\nvalue = [[10, 0]\n[8, 2]\n[7, 3]\n[8, 2]\n[7, 3]]", fillcolor="#e5813913"] ;
589 -> 590 ;
591 [label="gini = 0.0\nsamples = 1\nvalue = [[1, 0]\n[0, 1]\n[1, 0]\n[1, 0]\n[1, 0]]", fillcolor="#e58139ff"] ;
589 -> 591 ;
592 [label="12 <= 0.013\ngini = 0.15\nsamples = 4\nvalue = [[4, 0]\n[3, 1]\n[1, 3]\n[4, 0]\n[4, 0]]", fillcolor="#e5813987"] ;
588 -> 592 ;
593 [label="gini = 0.0\nsamples = 3\nvalue = [[3, 0]\n[3, 0]\n[0, 3]\n[3, 0]\n[3, 0]]", fillcolor="#e58139ff"] ;
592 -> 593 ;
594 [label="gini = 0.0\nsamples = 1\nvalue = [[1, 0]\n[0, 1]\n[1, 0]\n[1, 0]\n[1, 0]]", fillcolor="#e58139ff"] ;
592 -> 594 ;
595 [label="12 <= 0.013\ngini = 0.248\nsamples = 35\nvalue = [[35, 0]\n[27, 8]\n[16, 19]\n[29, 6]\n[33, 2]]", fillcolor="#e5813939"] ;
587 -> 595 ;
596 [label="5 <= 0.5\ngini = 0.248\nsamples = 32\nvalue = [[32, 0]\n[24, 8]\n[15, 17]\n[26, 6]\n[31, 1]]", fillcolor="#e581393a"] ;
595 -> 596 ;
597 [label="14 <= 0.05\ngini = 0.251\nsamples = 31\nvalue = [[31, 0]\n[23, 8]\n[15, 16]\n[25, 6]\n[30, 1]]", fillcolor="#e5813937"] ;
596 -> 597 ;
598 [label="3 <= 0.5\ngini = 0.238\nsamples = 24\nvalue = [[24, 0]\n[17, 7]\n[11, 13]\n[20, 4]\n[24, 0]]", fillcolor="#e5813942"] ;
597 -> 598 ;
599 [label="gini = 0.248\nsamples = 10\nvalue = [[10, 0]\n[8, 2]\n[5, 5]\n[7, 3]\n[10, 0]]", fillcolor="#e5813939"] ;
598 -> 599 ;
600 [label="6 <= 0.75\ngini = 0.216\nsamples = 14\nvalue = [[14, 0]\n[9, 5]\n[6, 8]\n[13, 1]\n[14, 0]]", fillcolor="#e5813953"] ;
598 -> 600 ;
601 [label="gini = 0.222\nsamples = 13\nvalue = [[13, 0]\n[8, 5]\n[6, 7]\n[12, 1]\n[13, 0]]", fillcolor="#e581394e"] ;
600 -> 601 ;
602 [label="gini = 0.0\nsamples = 1\nvalue = [[1, 0]\n[1, 0]\n[0, 1]\n[1, 0]\n[1, 0]]", fillcolor="#e58139ff"] ;
600 -> 602 ;
603 [label="gini = 0.278\nsamples = 7\nvalue = [[7, 0]\n[6, 1]\n[4, 3]\n[5, 2]\n[6, 1]]", fillcolor="#e5813922"] ;
597 -> 603 ;
604 [label="gini = 0.0\nsamples = 1\nvalue = [[1, 0]\n[1, 0]\n[0, 1]\n[1, 0]\n[1, 0]]", fillcolor="#e58139ff"] ;
596 -> 604 ;
605 [label="14 <= 0.05\ngini = 0.178\nsamples = 3\nvalue = [[3, 0]\n[3, 0]\n[1, 2]\n[3, 0]\n[2, 1]]", fillcolor="#e5813971"] ;
595 -> 605 ;
606 [label="gini = 0.2\nsamples = 2\nvalue = [[2, 0]\n[2, 0]\n[1, 1]\n[2, 0]\n[1, 1]]", fillcolor="#e5813960"] ;
605 -> 606 ;
607 [label="gini = 0.0\nsamples = 1\nvalue = [[1, 0]\n[1, 0]\n[0, 1]\n[1, 0]\n[1, 0]]", fillcolor="#e58139ff"] ;
605 -> 607 ;
608 [label="14 <= 0.05\ngini = 0.2\nsamples = 2\nvalue = [[2, 0]\n[2, 0]\n[2, 0]\n[1, 1]\n[1, 1]]", fillcolor="#e5813960"] ;
586 -> 608 ;
609 [label="gini = 0.0\nsamples = 1\nvalue = [[1, 0]\n[1, 0]\n[1, 0]\n[1, 0]\n[0, 1]]", fillcolor="#e58139ff"] ;
608 -> 609 ;
610 [label="gini = 0.0\nsamples = 1\nvalue = [[1, 0]\n[1, 0]\n[1, 0]\n[0, 1]\n[1, 0]]", fillcolor="#e58139ff"] ;
608 -> 610 ;
611 [label="5 <= 0.5\ngini = 0.184\nsamples = 10\nvalue = [[10, 0]\n[10, 0]\n[3, 7]\n[9, 1]\n[8, 2]]", fillcolor="#e581396c"] ;
585 -> 611 ;
612 [label="14 <= 0.05\ngini = 0.138\nsamples = 9\nvalue = [[9, 0]\n[9, 0]\n[2, 7]\n[9, 0]\n[7, 2]]", fillcolor="#e5813991"] ;
611 -> 612 ;
613 [label="gini = 0.0\nsamples = 4\nvalue = [[4, 0]\n[4, 0]\n[0, 4]\n[4, 0]\n[4, 0]]", fillcolor="#e58139ff"] ;
612 -> 613 ;
614 [label="6 <= 0.25\ngini = 0.192\nsamples = 5\nvalue = [[5, 0]\n[5, 0]\n[2, 3]\n[5, 0]\n[3, 2]]", fillcolor="#e5813966"] ;
612 -> 614 ;
615 [label="gini = 0.178\nsamples = 3\nvalue = [[3, 0]\n[3, 0]\n[1, 2]\n[3, 0]\n[2, 1]]", fillcolor="#e5813971"] ;
614 -> 615 ;
616 [label="gini = 0.2\nsamples = 2\nvalue = [[2, 0]\n[2, 0]\n[1, 1]\n[2, 0]\n[1, 1]]", fillcolor="#e5813960"] ;
614 -> 616 ;
617 [label="gini = 0.0\nsamples = 1\nvalue = [[1, 0]\n[1, 0]\n[1, 0]\n[0, 1]\n[1, 0]]", fillcolor="#e58139ff"] ;
611 -> 617 ;
618 [label="12 <= 0.062\ngini = 0.271\nsamples = 36\nvalue = [[36, 0]\n[26, 10]\n[22, 14]\n[25, 11]\n[35, 1]]", fillcolor="#e5813927"] ;
576 -> 618 ;
619 [label="2 <= 0.006\ngini = 0.263\nsamples = 34\nvalue = [[34, 0]\n[24, 10]\n[20, 14]\n[24, 10]\n[34, 0]]", fillcolor="#e581392d"] ;
618 -> 619 ;
620 [label="3 <= 0.5\ngini = 0.15\nsamples = 4\nvalue = [[4, 0]\n[3, 1]\n[1, 3]\n[4, 0]\n[4, 0]]", fillcolor="#e5813987"] ;
619 -> 620 ;
621 [label="gini = 0.0\nsamples = 3\nvalue = [[3, 0]\n[3, 0]\n[0, 3]\n[3, 0]\n[3, 0]]", fillcolor="#e58139ff"] ;
620 -> 621 ;
622 [label="gini = 0.0\nsamples = 1\nvalue = [[1, 0]\n[0, 1]\n[1, 0]\n[1, 0]\n[1, 0]]", fillcolor="#e58139ff"] ;
620 -> 622 ;
623 [label="15 <= 0.958\ngini = 0.266\nsamples = 30\nvalue = [[30, 0]\n[21, 9]\n[19, 11]\n[20, 10]\n[30, 0]]", fillcolor="#e581392b"] ;
619 -> 623 ;
624 [label="11 <= 0.026\ngini = 0.256\nsamples = 20\nvalue = [[20, 0]\n[16, 4]\n[12, 8]\n[12, 8]\n[20, 0]]", fillcolor="#e5813933"] ;
623 -> 624 ;
625 [label="5 <= 0.5\ngini = 0.257\nsamples = 19\nvalue = [[19, 0]\n[15, 4]\n[11, 8]\n[12, 7]\n[19, 0]]", fillcolor="#e5813932"] ;
624 -> 625 ;
626 [label="12 <= 0.025\ngini = 0.257\nsamples = 18\nvalue = [[18, 0]\n[14, 4]\n[10, 8]\n[12, 6]\n[18, 0]]", fillcolor="#e5813932"] ;
625 -> 626 ;
627 [label="13 <= 0.062\ngini = 0.26\nsamples = 17\nvalue = [[17, 0]\n[13, 4]\n[10, 7]\n[11, 6]\n[17, 0]]", fillcolor="#e5813930"] ;
626 -> 627 ;
628 [label="3 <= 0.5\ngini = 0.262\nsamples = 16\nvalue = [[16, 0]\n[12, 4]\n[10, 6]\n[10, 6]\n[16, 0]]", fillcolor="#e581392e"] ;
627 -> 628 ;
629 [label="6 <= 0.25\ngini = 0.256\nsamples = 5\nvalue = [[5, 0]\n[3, 2]\n[3, 2]\n[4, 1]\n[5, 0]]", fillcolor="#e5813933"] ;
628 -> 629 ;
630 [label="gini = 0.2\nsamples = 2\nvalue = [[2, 0]\n[2, 0]\n[1, 1]\n[1, 1]\n[2, 0]]", fillcolor="#e5813960"] ;
629 -> 630 ;
631 [label="gini = 0.178\nsamples = 3\nvalue = [[3, 0]\n[1, 2]\n[2, 1]\n[3, 0]\n[3, 0]]", fillcolor="#e5813971"] ;
629 -> 631 ;
632 [label="6 <= 0.25\ngini = 0.251\nsamples = 11\nvalue = [[11, 0]\n[9, 2]\n[7, 4]\n[6, 5]\n[11, 0]]", fillcolor="#e5813937"] ;
628 -> 632 ;
633 [label="gini = 0.267\nsamples = 6\nvalue = [[6, 0]\n[4, 2]\n[4, 2]\n[4, 2]\n[6, 0]]", fillcolor="#e581392a"] ;
632 -> 633 ;
634 [label="gini = 0.192\nsamples = 5\nvalue = [[5, 0]\n[5, 0]\n[3, 2]\n[2, 3]\n[5, 0]]", fillcolor="#e5813966"] ;
632 -> 634 ;
635 [label="gini = 0.0\nsamples = 1\nvalue = [[1, 0]\n[1, 0]\n[0, 1]\n[1, 0]\n[1, 0]]", fillcolor="#e58139ff"] ;
627 -> 635 ;
636 [label="gini = 0.0\nsamples = 1\nvalue = [[1, 0]\n[1, 0]\n[0, 1]\n[1, 0]\n[1, 0]]", fillcolor="#e58139ff"] ;
626 -> 636 ;
637 [label="gini = 0.0\nsamples = 1\nvalue = [[1, 0]\n[1, 0]\n[1, 0]\n[0, 1]\n[1, 0]]", fillcolor="#e58139ff"] ;
625 -> 637 ;
638 [label="gini = 0.0\nsamples = 1\nvalue = [[1, 0]\n[1, 0]\n[1, 0]\n[0, 1]\n[1, 0]]", fillcolor="#e58139ff"] ;
624 -> 638 ;
639 [label="3 <= 0.5\ngini = 0.248\nsamples = 10\nvalue = [[10, 0]\n[5, 5]\n[7, 3]\n[8, 2]\n[10, 0]]", fillcolor="#e5813939"] ;
623 -> 639 ;
640 [label="gini = 0.0\nsamples = 2\nvalue = [[2, 0]\n[0, 2]\n[2, 0]\n[2, 0]\n[2, 0]]", fillcolor="#e58139ff"] ;
639 -> 640 ;
641 [label="6 <= 0.25\ngini = 0.262\nsamples = 8\nvalue = [[8, 0]\n[5, 3]\n[5, 3]\n[6, 2]\n[8, 0]]", fillcolor="#e581392e"] ;
639 -> 641 ;
642 [label="11 <= 0.026\ngini = 0.245\nsamples = 7\nvalue = [[7, 0]\n[4, 3]\n[4, 3]\n[6, 1]\n[7, 0]]", fillcolor="#e581393c"] ;
641 -> 642 ;
643 [label="gini = 0.244\nsamples = 6\nvalue = [[6, 0]\n[3, 3]\n[4, 2]\n[5, 1]\n[6, 0]]", fillcolor="#e581393c"] ;
642 -> 643 ;
644 [label="gini = 0.0\nsamples = 1\nvalue = [[1, 0]\n[1, 0]\n[0, 1]\n[1, 0]\n[1, 0]]", fillcolor="#e58139ff"] ;
642 -> 644 ;
645 [label="gini = 0.0\nsamples = 1\nvalue = [[1, 0]\n[1, 0]\n[1, 0]\n[0, 1]\n[1, 0]]", fillcolor="#e58139ff"] ;
641 -> 645 ;
646 [label="6 <= 0.25\ngini = 0.2\nsamples = 2\nvalue = [[2, 0]\n[2, 0]\n[2, 0]\n[1, 1]\n[1, 1]]", fillcolor="#e5813960"] ;
618 -> 646 ;
647 [label="gini = 0.0\nsamples = 1\nvalue = [[1, 0]\n[1, 0]\n[1, 0]\n[0, 1]\n[1, 0]]", fillcolor="#e58139ff"] ;
646 -> 647 ;
648 [label="gini = 0.0\nsamples = 1\nvalue = [[1, 0]\n[1, 0]\n[1, 0]\n[1, 0]\n[0, 1]]", fillcolor="#e58139ff"] ;
646 -> 648 ;
649 [label="13 <= 0.062\ngini = 0.221\nsamples = 26\nvalue = [[26, 0]\n[20, 6]\n[10, 16]\n[23, 3]\n[25, 1]]", fillcolor="#e581394f"] ;
569 -> 649 ;
650 [label="12 <= 0.062\ngini = 0.207\nsamples = 25\nvalue = [[25, 0]\n[19, 6]\n[9, 16]\n[22, 3]\n[25, 0]]", fillcolor="#e581395a"] ;
649 -> 650 ;
651 [label="2 <= 0.006\ngini = 0.199\nsamples = 24\nvalue = [[24, 0]\n[19, 5]\n[8, 16]\n[21, 3]\n[24, 0]]", fillcolor="#e5813961"] ;
650 -> 651 ;
652 [label="3 <= 0.5\ngini = 0.111\nsamples = 6\nvalue = [[6, 0]\n[6, 0]\n[1, 5]\n[5, 1]\n[6, 0]]", fillcolor="#e58139a6"] ;
651 -> 652 ;
653 [label="gini = 0.0\nsamples = 3\nvalue = [[3, 0]\n[3, 0]\n[0, 3]\n[3, 0]\n[3, 0]]", fillcolor="#e58139ff"] ;
652 -> 653 ;
654 [label="11 <= 0.026\ngini = 0.178\nsamples = 3\nvalue = [[3, 0]\n[3, 0]\n[1, 2]\n[2, 1]\n[3, 0]]", fillcolor="#e5813971"] ;
652 -> 654 ;
655 [label="gini = 0.2\nsamples = 2\nvalue = [[2, 0]\n[2, 0]\n[1, 1]\n[1, 1]\n[2, 0]]", fillcolor="#e5813960"] ;
654 -> 655 ;
656 [label="gini = 0.0\nsamples = 1\nvalue = [[1, 0]\n[1, 0]\n[0, 1]\n[1, 0]\n[1, 0]]", fillcolor="#e58139ff"] ;
654 -> 656 ;
657 [label="3 <= 0.5\ngini = 0.215\nsamples = 18\nvalue = [[18, 0]\n[13, 5]\n[7, 11]\n[16, 2]\n[18, 0]]", fillcolor="#e5813954"] ;
651 -> 657 ;
658 [label="gini = 0.192\nsamples = 5\nvalue = [[5, 0]\n[2, 3]\n[3, 2]\n[5, 0]\n[5, 0]]", fillcolor="#e5813966"] ;
657 -> 658 ;
659 [label="5 <= 0.5\ngini = 0.189\nsamples = 13\nvalue = [[13, 0]\n[11, 2]\n[4, 9]\n[11, 2]\n[13, 0]]", fillcolor="#e5813968"] ;
657 -> 659 ;
660 [label="15 <= 0.958\ngini = 0.161\nsamples = 12\nvalue = [[12, 0]\n[11, 1]\n[3, 9]\n[10, 2]\n[12, 0]]", fillcolor="#e581397f"] ;
659 -> 660 ;
661 [label="12 <= 0.002\ngini = 0.198\nsamples = 9\nvalue = [[9, 0]\n[8, 1]\n[3, 6]\n[7, 2]\n[9, 0]]", fillcolor="#e5813962"] ;
660 -> 661 ;
662 [label="6 <= 0.25\ngini = 0.212\nsamples = 8\nvalue = [[8, 0]\n[7, 1]\n[3, 5]\n[6, 2]\n[8, 0]]", fillcolor="#e5813956"] ;
661 -> 662 ;
663 [label="gini = 0.224\nsamples = 5\nvalue = [[5, 0]\n[4, 1]\n[2, 3]\n[4, 1]\n[5, 0]]", fillcolor="#e581394c"] ;
662 -> 663 ;
664 [label="gini = 0.178\nsamples = 3\nvalue = [[3, 0]\n[3, 0]\n[1, 2]\n[2, 1]\n[3, 0]]", fillcolor="#e5813971"] ;
662 -> 664 ;
665 [label="gini = 0.0\nsamples = 1\nvalue = [[1, 0]\n[1, 0]\n[0, 1]\n[1, 0]\n[1, 0]]", fillcolor="#e58139ff"] ;
661 -> 665 ;
666 [label="gini = 0.0\nsamples = 3\nvalue = [[3, 0]\n[3, 0]\n[0, 3]\n[3, 0]\n[3, 0]]", fillcolor="#e58139ff"] ;
660 -> 666 ;
667 [label="gini = 0.0\nsamples = 1\nvalue = [[1, 0]\n[0, 1]\n[1, 0]\n[1, 0]\n[1, 0]]", fillcolor="#e58139ff"] ;
659 -> 667 ;
668 [label="gini = 0.0\nsamples = 1\nvalue = [[1, 0]\n[0, 1]\n[1, 0]\n[1, 0]\n[1, 0]]", fillcolor="#e58139ff"] ;
650 -> 668 ;
669 [label="gini = 0.0\nsamples = 1\nvalue = [[1, 0]\n[1, 0]\n[1, 0]\n[1, 0]\n[0, 1]]", fillcolor="#e58139ff"] ;
649 -> 669 ;
670 [label="gini = 0.0\nsamples = 1\nvalue = [[1, 0]\n[1, 0]\n[1, 0]\n[0, 1]\n[1, 0]]", fillcolor="#e58139ff"] ;
568 -> 670 ;
671 [label="3 <= 0.5\ngini = 0.265\nsamples = 21\nvalue = [[21, 0]\n[13, 8]\n[15, 6]\n[14, 7]\n[21, 0]]", fillcolor="#e581392c"] ;
567 -> 671 ;
672 [label="5 <= 0.5\ngini = 0.225\nsamples = 11\nvalue = [[11, 0]\n[5, 6]\n[10, 1]\n[7, 4]\n[11, 0]]", fillcolor="#e581394c"] ;
671 -> 672 ;
673 [label="12 <= 0.013\ngini = 0.198\nsamples = 9\nvalue = [[9, 0]\n[3, 6]\n[8, 1]\n[7, 2]\n[9, 0]]", fillcolor="#e5813962"] ;
672 -> 673 ;
674 [label="gini = 0.098\nsamples = 7\nvalue = [[7, 0]\n[1, 6]\n[6, 1]\n[7, 0]\n[7, 0]]", fillcolor="#e58139b1"] ;
673 -> 674 ;
675 [label="gini = 0.0\nsamples = 2\nvalue = [[2, 0]\n[2, 0]\n[2, 0]\n[0, 2]\n[2, 0]]", fillcolor="#e58139ff"] ;
673 -> 675 ;
676 [label="gini = 0.0\nsamples = 2\nvalue = [[2, 0]\n[2, 0]\n[2, 0]\n[0, 2]\n[2, 0]]", fillcolor="#e58139ff"] ;
672 -> 676 ;
677 [label="8 <= 0.5\ngini = 0.248\nsamples = 10\nvalue = [[10, 0]\n[8, 2]\n[5, 5]\n[7, 3]\n[10, 0]]", fillcolor="#e5813939"] ;
671 -> 677 ;
678 [label="gini = 0.0\nsamples = 1\nvalue = [[1, 0]\n[0, 1]\n[1, 0]\n[1, 0]\n[1, 0]]", fillcolor="#e58139ff"] ;
677 -> 678 ;
679 [label="2 <= 0.006\ngini = 0.227\nsamples = 9\nvalue = [[9, 0]\n[8, 1]\n[4, 5]\n[6, 3]\n[9, 0]]", fillcolor="#e581394a"] ;
677 -> 679 ;
680 [label="gini = 0.0\nsamples = 1\nvalue = [[1, 0]\n[1, 0]\n[1, 0]\n[0, 1]\n[1, 0]]", fillcolor="#e58139ff"] ;
679 -> 680 ;
681 [label="15 <= 0.958\ngini = 0.212\nsamples = 8\nvalue = [[8, 0]\n[7, 1]\n[3, 5]\n[6, 2]\n[8, 0]]", fillcolor="#e5813956"] ;
679 -> 681 ;
682 [label="6 <= 0.25\ngini = 0.229\nsamples = 7\nvalue = [[7, 0]\n[6, 1]\n[3, 4]\n[5, 2]\n[7, 0]]", fillcolor="#e5813949"] ;
681 -> 682 ;
683 [label="13 <= 0.062\ngini = 0.15\nsamples = 4\nvalue = [[4, 0]\n[4, 0]\n[1, 3]\n[3, 1]\n[4, 0]]", fillcolor="#e5813987"] ;
682 -> 683 ;
684 [label="5 <= 0.5\ngini = 0.178\nsamples = 3\nvalue = [[3, 0]\n[3, 0]\n[1, 2]\n[2, 1]\n[3, 0]]", fillcolor="#e5813971"] ;
683 -> 684 ;
685 [label="gini = 0.2\nsamples = 2\nvalue = [[2, 0]\n[2, 0]\n[1, 1]\n[1, 1]\n[2, 0]]", fillcolor="#e5813960"] ;
684 -> 685 ;
686 [label="gini = 0.0\nsamples = 1\nvalue = [[1, 0]\n[1, 0]\n[0, 1]\n[1, 0]\n[1, 0]]", fillcolor="#e58139ff"] ;
684 -> 686 ;
687 [label="gini = 0.0\nsamples = 1\nvalue = [[1, 0]\n[1, 0]\n[0, 1]\n[1, 0]\n[1, 0]]", fillcolor="#e58139ff"] ;
683 -> 687 ;
688 [label="gini = 0.267\nsamples = 3\nvalue = [[3, 0]\n[2, 1]\n[2, 1]\n[2, 1]\n[3, 0]]", fillcolor="#e581392a"] ;
682 -> 688 ;
689 [label="gini = 0.0\nsamples = 1\nvalue = [[1, 0]\n[1, 0]\n[0, 1]\n[1, 0]\n[1, 0]]", fillcolor="#e58139ff"] ;
681 -> 689 ;
690 [label="6 <= 0.75\ngini = 0.303\nsamples = 160\nvalue = [[156, 4]\n[117, 43]\n[114, 46]\n[128, 32]\n[125, 35]]", fillcolor="#e581390e"] ;
188 -> 690 ;
691 [label="13 <= 0.062\ngini = 0.301\nsamples = 156\nvalue = [[153, 3]\n[113, 43]\n[110, 46]\n[124, 32]\n[124, 32]]", fillcolor="#e581390f"] ;
690 -> 691 ;
692 [label="14 <= 0.083\ngini = 0.302\nsamples = 153\nvalue = [[150, 3]\n[110, 43]\n[110, 43]\n[121, 32]\n[121, 32]]", fillcolor="#e581390f"] ;
691 -> 692 ;
693 [label="7 <= 0.75\ngini = 0.302\nsamples = 75\nvalue = [[73, 2]\n[59, 16]\n[54, 21]\n[61, 14]\n[53, 22]]", fillcolor="#e581390f"] ;
692 -> 693 ;
694 [label="8 <= 0.25\ngini = 0.299\nsamples = 39\nvalue = [[39, 0]\n[28, 11]\n[30, 9]\n[29, 10]\n[30, 9]]", fillcolor="#e5813911"] ;
693 -> 694 ;
695 [label="6 <= 0.25\ngini = 0.28\nsamples = 20\nvalue = [[20, 0]\n[18, 2]\n[14, 6]\n[16, 4]\n[12, 8]]", fillcolor="#e5813920"] ;
694 -> 695 ;
696 [label="3 <= 0.5\ngini = 0.29\nsamples = 14\nvalue = [[14, 0]\n[12, 2]\n[9, 5]\n[10, 4]\n[11, 3]]", fillcolor="#e5813918"] ;
695 -> 696 ;
697 [label="12 <= 0.0\ngini = 0.245\nsamples = 7\nvalue = [[7, 0]\n[6, 1]\n[4, 3]\n[4, 3]\n[7, 0]]", fillcolor="#e581393c"] ;
696 -> 697 ;
698 [label="1 <= 0.5\ngini = 0.244\nsamples = 6\nvalue = [[6, 0]\n[5, 1]\n[3, 3]\n[4, 2]\n[6, 0]]", fillcolor="#e581393c"] ;
697 -> 698 ;
699 [label="gini = 0.0\nsamples = 1\nvalue = [[1, 0]\n[1, 0]\n[1, 0]\n[0, 1]\n[1, 0]]", fillcolor="#e58139ff"] ;
698 -> 699 ;
700 [label="11 <= 0.026\ngini = 0.224\nsamples = 5\nvalue = [[5, 0]\n[4, 1]\n[2, 3]\n[4, 1]\n[5, 0]]", fillcolor="#e581394c"] ;
698 -> 700 ;
701 [label="15 <= 0.958\ngini = 0.178\nsamples = 3\nvalue = [[3, 0]\n[2, 1]\n[1, 2]\n[3, 0]\n[3, 0]]", fillcolor="#e5813971"] ;
700 -> 701 ;
702 [label="gini = 0.2\nsamples = 2\nvalue = [[2, 0]\n[1, 1]\n[1, 1]\n[2, 0]\n[2, 0]]", fillcolor="#e5813960"] ;
701 -> 702 ;
703 [label="gini = 0.0\nsamples = 1\nvalue = [[1, 0]\n[1, 0]\n[0, 1]\n[1, 0]\n[1, 0]]", fillcolor="#e58139ff"] ;
701 -> 703 ;
704 [label="15 <= 0.458\ngini = 0.2\nsamples = 2\nvalue = [[2, 0]\n[2, 0]\n[1, 1]\n[1, 1]\n[2, 0]]", fillcolor="#e5813960"] ;
700 -> 704 ;
705 [label="gini = 0.0\nsamples = 1\nvalue = [[1, 0]\n[1, 0]\n[0, 1]\n[1, 0]\n[1, 0]]", fillcolor="#e58139ff"] ;
704 -> 705 ;
706 [label="gini = 0.0\nsamples = 1\nvalue = [[1, 0]\n[1, 0]\n[1, 0]\n[0, 1]\n[1, 0]]", fillcolor="#e58139ff"] ;
704 -> 706 ;
707 [label="gini = 0.0\nsamples = 1\nvalue = [[1, 0]\n[1, 0]\n[1, 0]\n[0, 1]\n[1, 0]]", fillcolor="#e58139ff"] ;
697 -> 707 ;
708 [label="15 <= 0.958\ngini = 0.278\nsamples = 7\nvalue = [[7, 0]\n[6, 1]\n[5, 2]\n[6, 1]\n[4, 3]]", fillcolor="#e5813922"] ;
696 -> 708 ;
709 [label="14 <= 0.05\ngini = 0.2\nsamples = 4\nvalue = [[4, 0]\n[4, 0]\n[2, 2]\n[4, 0]\n[2, 2]]", fillcolor="#e5813960"] ;
708 -> 709 ;
710 [label="12 <= 0.013\ngini = 0.178\nsamples = 3\nvalue = [[3, 0]\n[3, 0]\n[1, 2]\n[3, 0]\n[2, 1]]", fillcolor="#e5813971"] ;
709 -> 710 ;
711 [label="1 <= 0.5\ngini = 0.2\nsamples = 2\nvalue = [[2, 0]\n[2, 0]\n[1, 1]\n[2, 0]\n[1, 1]]", fillcolor="#e5813960"] ;
710 -> 711 ;
712 [label="gini = 0.0\nsamples = 1\nvalue = [[1, 0]\n[1, 0]\n[0, 1]\n[1, 0]\n[1, 0]]", fillcolor="#e58139ff"] ;
711 -> 712 ;
713 [label="gini = 0.0\nsamples = 1\nvalue = [[1, 0]\n[1, 0]\n[1, 0]\n[1, 0]\n[0, 1]]", fillcolor="#e58139ff"] ;
711 -> 713 ;
714 [label="gini = 0.0\nsamples = 1\nvalue = [[1, 0]\n[1, 0]\n[0, 1]\n[1, 0]\n[1, 0]]", fillcolor="#e58139ff"] ;
710 -> 714 ;
715 [label="gini = 0.0\nsamples = 1\nvalue = [[1, 0]\n[1, 0]\n[1, 0]\n[1, 0]\n[0, 1]]", fillcolor="#e58139ff"] ;
709 -> 715 ;
716 [label="14 <= 0.05\ngini = 0.267\nsamples = 3\nvalue = [[3, 0]\n[2, 1]\n[3, 0]\n[2, 1]\n[2, 1]]", fillcolor="#e581392a"] ;
708 -> 716 ;
717 [label="gini = 0.2\nsamples = 2\nvalue = [[2, 0]\n[2, 0]\n[2, 0]\n[1, 1]\n[1, 1]]", fillcolor="#e5813960"] ;
716 -> 717 ;
718 [label="gini = 0.0\nsamples = 1\nvalue = [[1, 0]\n[0, 1]\n[1, 0]\n[1, 0]\n[1, 0]]", fillcolor="#e58139ff"] ;
716 -> 718 ;
719 [label="15 <= 0.958\ngini = 0.111\nsamples = 6\nvalue = [[6, 0]\n[6, 0]\n[5, 1]\n[6, 0]\n[1, 5]]", fillcolor="#e58139a6"] ;
695 -> 719 ;
720 [label="gini = 0.0\nsamples = 5\nvalue = [[5, 0]\n[5, 0]\n[5, 0]\n[5, 0]\n[0, 5]]", fillcolor="#e58139ff"] ;
719 -> 720 ;
721 [label="gini = 0.0\nsamples = 1\nvalue = [[1, 0]\n[1, 0]\n[0, 1]\n[1, 0]\n[1, 0]]", fillcolor="#e58139ff"] ;
719 -> 721 ;
722 [label="5 <= 0.5\ngini = 0.259\nsamples = 19\nvalue = [[19, 0]\n[10, 9]\n[16, 3]\n[13, 6]\n[18, 1]]", fillcolor="#e5813930"] ;
694 -> 722 ;
723 [label="3 <= 0.5\ngini = 0.272\nsamples = 16\nvalue = [[16, 0]\n[10, 6]\n[13, 3]\n[10, 6]\n[15, 1]]", fillcolor="#e5813926"] ;
722 -> 723 ;
724 [label="14 <= 0.05\ngini = 0.2\nsamples = 4\nvalue = [[4, 0]\n[4, 0]\n[2, 2]\n[2, 2]\n[4, 0]]", fillcolor="#e5813960"] ;
723 -> 724 ;
725 [label="gini = 0.2\nsamples = 2\nvalue = [[2, 0]\n[2, 0]\n[1, 1]\n[1, 1]\n[2, 0]]", fillcolor="#e5813960"] ;
724 -> 725 ;
726 [label="gini = 0.2\nsamples = 2\nvalue = [[2, 0]\n[2, 0]\n[1, 1]\n[1, 1]\n[2, 0]]", fillcolor="#e5813960"] ;
724 -> 726 ;
727 [label="12 <= 0.013\ngini = 0.25\nsamples = 12\nvalue = [[12, 0]\n[6, 6]\n[11, 1]\n[8, 4]\n[11, 1]]", fillcolor="#e5813938"] ;
723 -> 727 ;
728 [label="14 <= 0.05\ngini = 0.216\nsamples = 10\nvalue = [[10, 0]\n[4, 6]\n[9, 1]\n[7, 3]\n[10, 0]]", fillcolor="#e5813953"] ;
727 -> 728 ;
729 [label="15 <= 0.458\ngini = 0.128\nsamples = 5\nvalue = [[5, 0]\n[1, 4]\n[4, 1]\n[5, 0]\n[5, 0]]", fillcolor="#e5813999"] ;
728 -> 729 ;
730 [label="6 <= 0.25\ngini = 0.178\nsamples = 3\nvalue = [[3, 0]\n[1, 2]\n[2, 1]\n[3, 0]\n[3, 0]]", fillcolor="#e5813971"] ;
729 -> 730 ;
731 [label="gini = 0.2\nsamples = 2\nvalue = [[2, 0]\n[1, 1]\n[1, 1]\n[2, 0]\n[2, 0]]", fillcolor="#e5813960"] ;
730 -> 731 ;
732 [label="gini = 0.0\nsamples = 1\nvalue = [[1, 0]\n[0, 1]\n[1, 0]\n[1, 0]\n[1, 0]]", fillcolor="#e58139ff"] ;
730 -> 732 ;
733 [label="gini = 0.0\nsamples = 2\nvalue = [[2, 0]\n[0, 2]\n[2, 0]\n[2, 0]\n[2, 0]]", fillcolor="#e58139ff"] ;
729 -> 733 ;
734 [label="7 <= 0.25\ngini = 0.192\nsamples = 5\nvalue = [[5, 0]\n[3, 2]\n[5, 0]\n[2, 3]\n[5, 0]]", fillcolor="#e5813966"] ;
728 -> 734 ;
735 [label="6 <= 0.25\ngini = 0.178\nsamples = 3\nvalue = [[3, 0]\n[1, 2]\n[3, 0]\n[2, 1]\n[3, 0]]", fillcolor="#e5813971"] ;
734 -> 735 ;
736 [label="gini = 0.0\nsamples = 2\nvalue = [[2, 0]\n[0, 2]\n[2, 0]\n[2, 0]\n[2, 0]]", fillcolor="#e58139ff"] ;
735 -> 736 ;
737 [label="gini = 0.0\nsamples = 1\nvalue = [[1, 0]\n[1, 0]\n[1, 0]\n[0, 1]\n[1, 0]]", fillcolor="#e58139ff"] ;
735 -> 737 ;
738 [label="gini = 0.0\nsamples = 2\nvalue = [[2, 0]\n[2, 0]\n[2, 0]\n[0, 2]\n[2, 0]]", fillcolor="#e58139ff"] ;
734 -> 738 ;
739 [label="1 <= 0.5\ngini = 0.2\nsamples = 2\nvalue = [[2, 0]\n[2, 0]\n[2, 0]\n[1, 1]\n[1, 1]]", fillcolor="#e5813960"] ;
727 -> 739 ;
740 [label="gini = 0.0\nsamples = 1\nvalue = [[1, 0]\n[1, 0]\n[1, 0]\n[0, 1]\n[1, 0]]", fillcolor="#e58139ff"] ;
739 -> 740 ;
741 [label="gini = 0.0\nsamples = 1\nvalue = [[1, 0]\n[1, 0]\n[1, 0]\n[1, 0]\n[0, 1]]", fillcolor="#e58139ff"] ;
739 -> 741 ;
742 [label="gini = 0.0\nsamples = 3\nvalue = [[3, 0]\n[0, 3]\n[3, 0]\n[3, 0]\n[3, 0]]", fillcolor="#e58139ff"] ;
722 -> 742 ;
